<?xml version="1.0"?>
<opencv_storage>
<cascade>
  <stageType>BOOST</stageType>
  <featureType>LBP</featureType>
  <height>30</height>
  <width>90</width>
  <stageParams>
    <boostType>GAB</boostType>
    <minHitRate>9.9989998340606689e-001</minHitRate>
    <maxFalseAlarm>3.0000001192092896e-001</maxFalseAlarm>
    <weightTrimRate>9.4999999999999996e-001</weightTrimRate>
    <maxDepth>1</maxDepth>
    <maxWeakCount>100</maxWeakCount></stageParams>
  <featureParams>
    <maxCatCount>256</maxCatCount>
    <featSize>1</featSize></featureParams>
  <stageNum>16</stageNum>
  <stages>
    <!-- stage 0 -->
    <_>
      <maxWeakCount>8</maxWeakCount>
      <stageThreshold>-1.3600425720214844e+000</stageThreshold>
      <weakClassifiers>
        <_>
          <internalNodes>
            0 -1 175 -9928552 -393219 -67698689 -1 -19617044 -16842756
            -1141064966 -266242</internalNodes>
          <leafValues>
            -6.5888977050781250e-001 8.8385200500488281e-001</leafValues></_>
        <_>
          <internalNodes>
            0 -1 91 -1037950726 -316422 -1212269825 2105289470
            -285234946 -1069057 -16781574 -2119490</internalNodes>
          <leafValues>
            -6.1953467130661011e-001 7.8853029012680054e-001</leafValues></_>
        <_>
          <internalNodes>
            0 -1 38 5785045 1061967031 486611447 496373783 311097599
            -1181056850 227162879 681707902</internalNodes>
          <leafValues>
            -7.2716426849365234e-001 6.1456221342086792e-001</leafValues></_>
        <_>
          <internalNodes>
            0 -1 142 -767565053 530316605 -1073790981 -4194305 743411498
            -1433481310 784330570 -78647349</internalNodes>
          <leafValues>
            -5.4557967185974121e-001 7.4399429559707642e-001</leafValues></_>
        <_>
          <internalNodes>
            0 -1 53 -1006595876 -1726476012 -268425643 -6470991
            -389526792 -1129790307 1914881273 -1979148200</internalNodes>
          <leafValues>
            -6.9536262750625610e-001 5.6997621059417725e-001</leafValues></_>
        <_>
          <internalNodes>
            0 -1 126 -225984382 1351237638 1078034832 1359187970
            -749055573 6815752 -1056219126 1129308563</internalNodes>
          <leafValues>
            -6.1579602956771851e-001 6.3148641586303711e-001</leafValues></_>
        <_>
          <internalNodes>
            0 -1 77 -508438014 897681672 -805219806 -2122070761
            -1039433592 51 275075307 1402988683</internalNodes>
          <leafValues>
            -6.1533528566360474e-001 5.8995300531387329e-001</leafValues></_>
        <_>
          <internalNodes>
            0 -1 132 92277877 -678133319 1142248859 1574375618
            -1417094214 -75333496 -1994848005 -1883308001</internalNodes>
          <leafValues>
            -6.0028976202011108e-001 6.6102796792984009e-001</leafValues></_></weakClassifiers></_>
    <!-- stage 1 -->
    <_>
      <maxWeakCount>7</maxWeakCount>
      <stageThreshold>-1.7541183233261108e+000</stageThreshold>
      <weakClassifiers>
        <_>
          <internalNodes>
            0 -1 93 145231101 1072892381 455032831 393809405 -1430503937
            -1073824771 267010047 238554300</internalNodes>
          <leafValues>
            -7.1377462148666382e-001 8.5259151458740234e-001</leafValues></_>
        <_>
          <internalNodes>
            0 -1 64 -600009219 -37874179 -5005315 -13541900 -1074462721
            -65540 -344065 260574472</internalNodes>
          <leafValues>
            -6.2415856122970581e-001 8.1532680988311768e-001</leafValues></_>
        <_>
          <internalNodes>
            0 -1 66 268505341 -175636464 553670109 1570574713
            -1467303233 -1163198040 176700159 721029307</internalNodes>
          <leafValues>
            -6.7043799161911011e-001 6.9788819551467896e-001</leafValues></_>
        <_>
          <internalNodes>
            0 -1 74 1572378840 -41025 15466716 1576356026 -1073825794
            -1073750145 654213838 -1073756501</internalNodes>
          <leafValues>
            -6.1319559812545776e-001 6.8633741140365601e-001</leafValues></_>
        <_>
          <internalNodes>
            0 -1 90 -1728046595 -581865000 -1789848099 -548338279
            -1851258113 -70498120 -1416066114 -1400883052</internalNodes>
          <leafValues>
            -6.4863604307174683e-001 6.2955600023269653e-001</leafValues></_>
        <_>
          <internalNodes>
            0 -1 57 1195389 274728082 222560767 290982229 2178175
            144836745 701570447 413860012</internalNodes>
          <leafValues>
            -6.5926873683929443e-001 5.9386813640594482e-001</leafValues></_>
        <_>
          <internalNodes>
            0 -1 73 347083989 -260716 1878939519 -1074127492 -1187213911
            -1090683043 213416443 -1154873888</internalNodes>
          <leafValues>
            -5.4232418537139893e-001 6.9245272874832153e-001</leafValues></_></weakClassifiers></_>
    <!-- stage 2 -->
    <_>
      <maxWeakCount>10</maxWeakCount>
      <stageThreshold>-1.2612557411193848e+000</stageThreshold>
      <weakClassifiers>
        <_>
          <internalNodes>
            0 -1 166 -570904884 -131074 -65537 -3 -1073828100 -33603585
            -212994 -2</internalNodes>
          <leafValues>
            -5.7029175758361816e-001 8.1874555349349976e-001</leafValues></_>
        <_>
          <internalNodes>
            0 -1 148 -47099888 -163907 -1610613283 -32971 -9063
            -553664513 -1124091652 -41059219</internalNodes>
          <leafValues>
            -5.7967001199722290e-001 6.9269573688507080e-001</leafValues></_>
        <_>
          <internalNodes>
            0 -1 159 781193589 -113160163 -1149183745 2040304839
            -1442279221 -1165360996 -1367303681 -1191175015</internalNodes>
          <leafValues>
            -5.7380539178848267e-001 5.7258778810501099e-001</leafValues></_>
        <_>
          <internalNodes>
            0 -1 106 -48573702 -4624642 1878752411 1469091962
            -1561657345 -285737089 -1375732583 -805312262</internalNodes>
          <leafValues>
            -5.0201112031936646e-001 6.7589533329010010e-001</leafValues></_>
        <_>
          <internalNodes>
            0 -1 219 -87302367 9752711 -784875264 1477478466 -886882251
            701702518 -112069871 -260833609</internalNodes>
          <leafValues>
            -6.5035390853881836e-001 5.0307798385620117e-001</leafValues></_>
        <_>
          <internalNodes>
            0 -1 125 889598548 1597264981 -989276801 -40106651
            -1610050370 -68648831 -1174327363 -1148974644</internalNodes>
          <leafValues>
            -5.5135923624038696e-001 5.4084950685501099e-001</leafValues></_>
        <_>
          <internalNodes>
            0 -1 55 136337525 -51163403 1340979963 366484374 -571108175
            -1074287148 -1348928295 -1191432792</internalNodes>
          <leafValues>
            -5.0299406051635742e-001 6.0203635692596436e-001</leafValues></_>
        <_>
          <internalNodes>
            0 -1 76 256437991 991559694 134611855 220545573 -1988015153
            -391734767 268543903 1328544419</internalNodes>
          <leafValues>
            -5.2283126115798950e-001 5.4738211631774902e-001</leafValues></_>
        <_>
          <internalNodes>
            0 -1 5 -525604662 -351108901 -2147106170 -334708522
            -1475661010 -1471577463 201805325 -270277889</internalNodes>
          <leafValues>
            -5.8912330865859985e-001 5.0069326162338257e-001</leafValues></_>
        <_>
          <internalNodes>
            0 -1 173 -1417174008 354948056 671464476 -2049752894
            -1458747187 1017839761 419520881 -1929918086</internalNodes>
          <leafValues>
            -6.5140581130981445e-001 4.3051335215568542e-001</leafValues></_></weakClassifiers></_>
    <!-- stage 3 -->
    <_>
      <maxWeakCount>10</maxWeakCount>
      <stageThreshold>-1.1774010658264160e+000</stageThreshold>
      <weakClassifiers>
        <_>
          <internalNodes>
            0 -1 47 -38251024 -9167376 -1073856515 -37757443 -737282
            -1073938440 -1078288388 151519232</internalNodes>
          <leafValues>
            -5.9870553016662598e-001 7.6029109954833984e-001</leafValues></_>
        <_>
          <internalNodes>
            0 -1 114 -91561474 -4353 -1057 -553414681 -13633601 -1048577
            -475021829 -78656321</internalNodes>
          <leafValues>
            -4.4611015915870667e-001 7.7731347084045410e-001</leafValues></_>
        <_>
          <internalNodes>
            0 -1 197 -580911843 1028984857 -2096936655 1372299547
            -842552355 -342768980 -590363475 -1031</internalNodes>
          <leafValues>
            -5.5719101428985596e-001 6.0042268037796021e-001</leafValues></_>
        <_>
          <internalNodes>
            0 -1 33 1346498815 1432364082 1441857469 1601289843
            336361727 -98298315 1967128507 487321391</internalNodes>
          <leafValues>
            -5.1357895135879517e-001 6.0129135847091675e-001</leafValues></_>
        <_>
          <internalNodes>
            0 -1 29 277901425 1608192465 -788193825 -552658607 696316413
            -1182252127 407318413 681183294</internalNodes>
          <leafValues>
            -6.1048454046249390e-001 4.5375481247901917e-001</leafValues></_>
        <_>
          <internalNodes>
            0 -1 127 -813700470 1095078092 1092550924 291815706
            586005165 124256392 1177002630 1508626375</internalNodes>
          <leafValues>
            -5.9867811203002930e-001 4.4230785965919495e-001</leafValues></_>
        <_>
          <internalNodes>
            0 -1 216 -67109067 -1782710337 -8399 -42074177 -548907
            -18907649 -1648962516 494886399</internalNodes>
          <leafValues>
            -4.6014606952667236e-001 5.6412893533706665e-001</leafValues></_>
        <_>
          <internalNodes>
            0 -1 37 -467906215 -1213757035 1812582749 962478105
            -368006150 -98449279 -1475724804 -1363658448</internalNodes>
          <leafValues>
            -5.1121574640274048e-001 5.2054488658905029e-001</leafValues></_>
        <_>
          <internalNodes>
            0 -1 151 -671479591 -79691907 -1113801539 -1711309457
            -1393590132 -135791115 -2141484916 -1285579061</internalNodes>
          <leafValues>
            -4.7892996668815613e-001 5.9986382722854614e-001</leafValues></_>
        <_>
          <internalNodes>
            0 -1 54 -1718584707 -145469296 -1248771623 -585475759
            -1994356549 -74344292 -1736408081 -1701050972</internalNodes>
          <leafValues>
            -5.7728695869445801e-001 4.6813872456550598e-001</leafValues></_></weakClassifiers></_>
    <!-- stage 4 -->
    <_>
      <maxWeakCount>12</maxWeakCount>
      <stageThreshold>-1.6206445693969727e+000</stageThreshold>
      <weakClassifiers>
        <_>
          <internalNodes>
            0 -1 146 -1124074360 -1132921128 -4099 -65 -285283192
            -1195594056 -580 -8392789</internalNodes>
          <leafValues>
            -4.8075023293495178e-001 7.5968450307846069e-001</leafValues></_>
        <_>
          <internalNodes>
            0 -1 44 281546997 -1862200943 -1660201569 2098942349
            -1201997062 -544271485 449429391 1004145087</internalNodes>
          <leafValues>
            -6.2223815917968750e-001 5.7559323310852051e-001</leafValues></_>
        <_>
          <internalNodes>
            0 -1 164 -538973218 -820708372 -1073984688 2146762724
            1330658676 368343004 1037385612 -67108881</internalNodes>
          <leafValues>
            -4.9400356411933899e-001 6.4469909667968750e-001</leafValues></_>
        <_>
          <internalNodes>
            0 -1 1 -992559004 -203463342 -788433793 -583052350 583789449
            -381181943 -338695217 -269539712</internalNodes>
          <leafValues>
            -5.8684641122817993e-001 5.1701486110687256e-001</leafValues></_>
        <_>
          <internalNodes>
            0 -1 108 -305402366 -783571968 1090846976 1351604232
            1745576194 1078076457 1142129284 1863840683</internalNodes>
          <leafValues>
            -5.8323794603347778e-001 4.9643164873123169e-001</leafValues></_>
        <_>
          <internalNodes>
            0 -1 89 285214800 -1617948400 268699903 -1626800099
            -1324834562 -1885828968 -1157593281 -1886912504</internalNodes>
          <leafValues>
            -5.7162451744079590e-001 5.4465067386627197e-001</leafValues></_>
        <_>
          <internalNodes>
            0 -1 180 4345 -179269447 -1861136993 1057951809 1041930461
            -1681358696 -182928456 -1090517800</internalNodes>
          <leafValues>
            -5.3894239664077759e-001 5.1194000244140625e-001</leafValues></_>
        <_>
          <internalNodes>
            0 -1 191 -319821055 1647177508 149892640 -487936348
            1467448069 6651767 1417134349 -201852209</internalNodes>
          <leafValues>
            -4.4916251301765442e-001 6.3670146465301514e-001</leafValues></_>
        <_>
          <internalNodes>
            0 -1 208 -167780899 1572143039 1870527773 1031782399
            1610612533 -33685505 -1107309315 -838873089</internalNodes>
          <leafValues>
            -3.9149636030197144e-001 6.8561083078384399e-001</leafValues></_>
        <_>
          <internalNodes>
            0 -1 27 -596321060 -1212336643 1060411071 -1855996685
            -1741113700 -818353427 1593998843 -837937205</internalNodes>
          <leafValues>
            -4.1640961170196533e-001 6.3828879594802856e-001</leafValues></_>
        <_>
          <internalNodes>
            0 -1 133 -90968146 -178212090 1342177280 77242600 1409899161
            33562883 1099553474 1195336527</internalNodes>
          <leafValues>
            -5.3567677736282349e-001 5.3714042901992798e-001</leafValues></_>
        <_>
          <internalNodes>
            0 -1 165 934943933 -1150055199 -1350582273 -579998031
            -1212912641 -277004559 517782968 -95940948</internalNodes>
          <leafValues>
            -4.4896978139877319e-001 6.3177603483200073e-001</leafValues></_></weakClassifiers></_>
    <!-- stage 5 -->
    <_>
      <maxWeakCount>13</maxWeakCount>
      <stageThreshold>-7.2574937343597412e-001</stageThreshold>
      <weakClassifiers>
        <_>
          <internalNodes>
            0 -1 71 -604243318 -33 78579788 462946111 -353386502 -257
            -286339378 -18350353</internalNodes>
          <leafValues>
            -2.9065489768981934e-001 8.0277425050735474e-001</leafValues></_>
        <_>
          <internalNodes>
            0 -1 153 270013785 -37798923 -1350631461 -176849409
            -205718033 -688172 -1620770818 -1156048673</internalNodes>
          <leafValues>
            -4.3923202157020569e-001 5.9814625978469849e-001</leafValues></_>
        <_>
          <internalNodes>
            0 -1 170 -822050166 -1924528893 77856810 -1755897581
            -763254360 -1145860071 155950491 -278144069</internalNodes>
          <leafValues>
            -5.6074225902557373e-001 4.7171521186828613e-001</leafValues></_>
        <_>
          <internalNodes>
            0 -1 82 1493700656 932381361 -1961837099 -1254786151
            237033720 -73855586 -1039639570 -1886780788</internalNodes>
          <leafValues>
            -4.6879684925079346e-001 5.3957802057266235e-001</leafValues></_>
        <_>
          <internalNodes>
            0 -1 179 1631059735 1965031221 -4194315 -524361 -5783553
            -12583041 -97 -1313865941</internalNodes>
          <leafValues>
            -3.9937299489974976e-001 6.0647326707839966e-001</leafValues></_>
        <_>
          <internalNodes>
            0 -1 123 -20447318 1103859758 -1006631552 10322443
            1422950411 8912904 1074308102 1927278303</internalNodes>
          <leafValues>
            -5.0522774457931519e-001 4.6533343195915222e-001</leafValues></_>
        <_>
          <internalNodes>
            0 -1 129 160433373 -782413411 -1795041954 -614594189
            142652154 -107446103 -1432307201 -1141373700</internalNodes>
          <leafValues>
            -5.6842404603958130e-001 4.2202544212341309e-001</leafValues></_>
        <_>
          <internalNodes>
            0 -1 212 -833690846 1664016161 -294810846 -890570838
            972641148 1305898959 -1476397610 -1579077</internalNodes>
          <leafValues>
            -4.8419561982154846e-001 5.0817936658859253e-001</leafValues></_>
        <_>
          <internalNodes>
            0 -1 18 -588920178 -654229230 1073742126 -855324670
            -1207926272 -1968176464 1073758830 -47223061</internalNodes>
          <leafValues>
            -5.4211366176605225e-001 4.4399833679199219e-001</leafValues></_>
        <_>
          <internalNodes>
            0 -1 152 -90194038 1942208534 -1862172022 1933639922
            1628162738 189409298 596360168 4710914</internalNodes>
          <leafValues>
            -6.2368208169937134e-001 3.8800552487373352e-001</leafValues></_>
        <_>
          <internalNodes>
            0 -1 174 -1745587471 2147055326 -1793029665 -15127783
            -1994115089 -124147013 -1736000833 -1383588764</internalNodes>
          <leafValues>
            -5.8362293243408203e-001 4.1405713558197021e-001</leafValues></_>
        <_>
          <internalNodes>
            0 -1 52 -1782024759 491655706 -804259875 -1190194773
            -854594865 -390345557 -1851175377 706218376</internalNodes>
          <leafValues>
            -6.8191134929656982e-001 3.3057877421379089e-001</leafValues></_>
        <_>
          <internalNodes>
            0 -1 135 -229919094 864285067 1451426184 -1052323576
            -2067685303 1216430112 -1610030316 1078452738</internalNodes>
          <leafValues>
            -5.7436949014663696e-001 4.1798517107963562e-001</leafValues></_></weakClassifiers></_>
    <!-- stage 6 -->
    <_>
      <maxWeakCount>15</maxWeakCount>
      <stageThreshold>-9.8073148727416992e-001</stageThreshold>
      <weakClassifiers>
        <_>
          <internalNodes>
            0 -1 177 1498365964 -49313 1568668669 -40993 -11543 -40993
            -35663921 2111525727</internalNodes>
          <leafValues>
            -4.2557650804519653e-001 7.3089241981506348e-001</leafValues></_>
        <_>
          <internalNodes>
            0 -1 105 -762785026 -580986118 2135699861 1901069018
            -1358593125 -1347198975 -2119450375 -812992198</internalNodes>
          <leafValues>
            -5.0978738069534302e-001 5.8605861663818359e-001</leafValues></_>
        <_>
          <internalNodes>
            0 -1 9 -476002586 -573253298 -989559738 -850464354
            -788524848 -1462968189 -889077297 -873469249</internalNodes>
          <leafValues>
            -5.9395259618759155e-001 4.4634974002838135e-001</leafValues></_>
        <_>
          <internalNodes>
            0 -1 72 521546201 -1722068771 1359004127 -102955647
            -119481861 -68515182 -1465335890 -1468003208</internalNodes>
          <leafValues>
            -4.5962399244308472e-001 4.8219397664070129e-001</leafValues></_>
        <_>
          <internalNodes>
            0 -1 143 -724060676 -1449965053 151188927 2115109235
            -813195000 -1417517037 143132808 153346586</internalNodes>
          <leafValues>
            -5.3864401578903198e-001 4.1603416204452515e-001</leafValues></_>
        <_>
          <internalNodes>
            0 -1 43 1246810544 -541323236 -1857020965 -117237159
            -2054649381 -6420295 -1844561153 -1954019168</internalNodes>
          <leafValues>
            -5.5315774679183960e-001 4.0825837850570679e-001</leafValues></_>
        <_>
          <internalNodes>
            0 -1 75 -25694070 1372938959 1745355016 860329997 1080366032
            1543831552 1091111307 2010906587</internalNodes>
          <leafValues>
            -5.3218799829483032e-001 4.1605687141418457e-001</leafValues></_>
        <_>
          <internalNodes>
            0 -1 223 -772802783 4391172 -1241332156 -1269710651
            -767078298 -687617856 -356278492 -209222987</internalNodes>
          <leafValues>
            -5.4629981517791748e-001 4.0057608485221863e-001</leafValues></_>
        <_>
          <internalNodes>
            0 -1 111 285756443 -685871914 1343390181 399245398
            -1199538436 -1378688381 1029833660 678960332</internalNodes>
          <leafValues>
            -5.9870535135269165e-001 3.6680620908737183e-001</leafValues></_>
        <_>
          <internalNodes>
            0 -1 117 -1946445829 11043344 465464217 459377599 534149759
            468230527 -1133152261 -1617019393</internalNodes>
          <leafValues>
            -4.1853216290473938e-001 5.3366863727569580e-001</leafValues></_>
        <_>
          <internalNodes>
            0 -1 109 2111685578 1964105797 -524516968 1293505415
            2089345224 688390401 1107419547 2139973995</internalNodes>
          <leafValues>
            -5.2653652429580688e-001 4.0813654661178589e-001</leafValues></_>
        <_>
          <internalNodes>
            0 -1 198 -366089466 764051920 -2136817406 -258035199
            2026222147 8392712 1464053810 -139996165</internalNodes>
          <leafValues>
            -4.6049511432647705e-001 4.7285389900207520e-001</leafValues></_>
        <_>
          <internalNodes>
            0 -1 119 -1685054083 -136589087 -1072623397 -16314099
            -2003270727 -1291769447 -1173816577 -1308751496</internalNodes>
          <leafValues>
            -5.1442152261734009e-001 4.4566777348518372e-001</leafValues></_>
        <_>
          <internalNodes>
            0 -1 228 -273683709 1225052426 73662992 1076022752
            -519847883 1175752838 -1899071456 -1461790364</internalNodes>
          <leafValues>
            -4.9778422713279724e-001 4.7265991568565369e-001</leafValues></_>
        <_>
          <internalNodes>
            0 -1 162 571696759 1476598291 -1870539689 487002199
            -1023360971 -637009904 -1283456768 -335515022</internalNodes>
          <leafValues>
            -5.7162451744079590e-001 3.8381227850914001e-001</leafValues></_></weakClassifiers></_>
    <!-- stage 7 -->
    <_>
      <maxWeakCount>17</maxWeakCount>
      <stageThreshold>-1.1172287464141846e+000</stageThreshold>
      <weakClassifiers>
        <_>
          <internalNodes>
            0 -1 112 -120616738 -570442054 385329343 -873735465
            -33575457 -33558785 1660939326 -10490118</internalNodes>
          <leafValues>
            -1.7989417910575867e-001 8.0272823572158813e-001</leafValues></_>
        <_>
          <internalNodes>
            0 -1 182 -680525987 -33685513 -269091015 -33587265 -41943943
            -1124205187 -33583747 -574620197</internalNodes>
          <leafValues>
            -3.7769460678100586e-001 6.5331637859344482e-001</leafValues></_>
        <_>
          <internalNodes>
            0 -1 102 -763182078 1884017096 999424 -1759755710 16827394
            268697987 1075920962 1938289615</internalNodes>
          <leafValues>
            -6.0793846845626831e-001 3.8377639651298523e-001</leafValues></_>
        <_>
          <internalNodes>
            0 -1 32 948965585 -1080725292 -1660773827 -1112982505
            1023557305 -84206981 273357055 1003159781</internalNodes>
          <leafValues>
            -6.5766161680221558e-001 3.3071932196617126e-001</leafValues></_>
        <_>
          <internalNodes>
            0 -1 68 -1059962 -182337526 16908484 298385487 548700170
            67371024 1144685483 2071976443</internalNodes>
          <leafValues>
            -4.9847936630249023e-001 4.4104352593421936e-001</leafValues></_>
        <_>
          <internalNodes>
            0 -1 155 -1917875198 -1342138212 131595 260084326 -299069526
            -182767486 -2144691542 -70267377</internalNodes>
          <leafValues>
            -5.7416433095932007e-001 3.8142582774162292e-001</leafValues></_>
        <_>
          <internalNodes>
            0 -1 203 244845045 -1112309607 -669838241 -1760606411
            -1605741569 -872756603 -1197818113 -1449650000</internalNodes>
          <leafValues>
            -5.7090663909912109e-001 3.7029278278350830e-001</leafValues></_>
        <_>
          <internalNodes>
            0 -1 97 85461108 965087628 276959551 1050479569 134748298
            707399757 -610244518 959449476</internalNodes>
          <leafValues>
            -7.0328342914581299e-001 2.9068371653556824e-001</leafValues></_>
        <_>
          <internalNodes>
            0 -1 0 -169887026 -19219 -65697 2145787614 -275918874
            -245772 -4259857 -104242554</internalNodes>
          <leafValues>
            -4.0929332375526428e-001 5.2525484561920166e-001</leafValues></_>
        <_>
          <internalNodes>
            0 -1 115 -21241312 269141346 25399322 279433251 1615151107
            44757675 268649183 1728826011</internalNodes>
          <leafValues>
            -5.3086888790130615e-001 4.0305632352828979e-001</leafValues></_>
        <_>
          <internalNodes>
            0 -1 30 1360009712 -1222852587 25430197 462655634
            -1039658760 -104066387 51391004 1061821215</internalNodes>
          <leafValues>
            -5.6637096405029297e-001 3.7552210688591003e-001</leafValues></_>
        <_>
          <internalNodes>
            0 -1 40 290762975 2014329226 1342521557 419450951 1208027803
            -73236221 1336770923 990782123</internalNodes>
          <leafValues>
            -4.9466246366500854e-001 4.2350292205810547e-001</leafValues></_>
        <_>
          <internalNodes>
            0 -1 137 -349518290 -1575140766 1078084866 -1970296431
            1342816848 185188352 1896063298 -419435923</internalNodes>
          <leafValues>
            -4.9473580718040466e-001 4.2926374077796936e-001</leafValues></_>
        <_>
          <internalNodes>
            0 -1 211 2078226856 1579243560 1996558664 1633456721
            1107382990 171983248 -561739559 -69018631</internalNodes>
          <leafValues>
            -5.2100139856338501e-001 4.0755411982536316e-001</leafValues></_>
        <_>
          <internalNodes>
            0 -1 193 832201213 -1751826275 -1823386529 -643455535
            1216483353 -1683955582 -1433388373 -1162340324</internalNodes>
          <leafValues>
            -5.3261363506317139e-001 3.8974696397781372e-001</leafValues></_>
        <_>
          <internalNodes>
            0 -1 205 -78646752 38199379 -267812777 1595132115 -402026022
            -1542930285 -2013022019 -668884458</internalNodes>
          <leafValues>
            -4.9280345439910889e-001 4.2696043848991394e-001</leafValues></_>
        <_>
          <internalNodes>
            0 -1 42 -639766386 -50031996 3456 1360208248 1645232779
            419561538 34277578 1004186590</internalNodes>
          <leafValues>
            -5.0607407093048096e-001 4.5449399948120117e-001</leafValues></_></weakClassifiers></_>
    <!-- stage 8 -->
    <_>
      <maxWeakCount>16</maxWeakCount>
      <stageThreshold>-1.0145382881164551e+000</stageThreshold>
      <weakClassifiers>
        <_>
          <internalNodes>
            0 -1 138 -807600180 2110821860 -1255392672 1610366076
            357840296 470818132 2111051772 -8392705</internalNodes>
          <leafValues>
            -2.2170542180538177e-001 7.6202279329299927e-001</leafValues></_>
        <_>
          <internalNodes>
            0 -1 167 1600083293 -2236937 -838865505 -1610646081
            -807407921 -134217729 -398636914 -33554465</internalNodes>
          <leafValues>
            -4.0912204980850220e-001 6.2288022041320801e-001</leafValues></_>
        <_>
          <internalNodes>
            0 -1 3 -396963990 -663186993 1744830790 -326991714
            1614893334 -2070232698 2036564657 -554241543</internalNodes>
          <leafValues>
            -6.0460877418518066e-001 4.2560905218124390e-001</leafValues></_>
        <_>
          <internalNodes>
            0 -1 218 -25691853 -763953306 -134742149 -1638557
            -1080557586 -13 -1208222017 -1199376074</internalNodes>
          <leafValues>
            -4.0012773871421814e-001 5.4193431138992310e-001</leafValues></_>
        <_>
          <internalNodes>
            0 -1 24 275837395 1358963666 -783969899 1436905607
            1514879391 -1438374872 1116418495 479101867</internalNodes>
          <leafValues>
            -5.1040303707122803e-001 4.3675616383552551e-001</leafValues></_>
        <_>
          <internalNodes>
            0 -1 154 -452738430 -1022254265 -1811345328 -86781401
            -972823226 -293445454 1193010955 -1073221118</internalNodes>
          <leafValues>
            -4.6413889527320862e-001 4.8073267936706543e-001</leafValues></_>
        <_>
          <internalNodes>
            0 -1 95 -1070866430 -672143624 788487027 -206592337
            -608698369 -285212699 -135811773 -681585362</internalNodes>
          <leafValues>
            -4.0602171421051025e-001 5.1133477687835693e-001</leafValues></_>
        <_>
          <internalNodes>
            0 -1 88 2067839802 833364441 202385164 1939153156
            -1595922288 403181704 609525941 2134895055</internalNodes>
          <leafValues>
            -5.5910503864288330e-001 3.7989574670791626e-001</leafValues></_>
        <_>
          <internalNodes>
            0 -1 181 492591965 -1684717391 -2079013131 1184583835
            -1390595113 -91780376 -1199476504 -1349758796</internalNodes>
          <leafValues>
            -5.5562096834182739e-001 3.7853285670280457e-001</leafValues></_>
        <_>
          <internalNodes>
            0 -1 207 -295699695 1412916493 -510940075 1561923595
            -938761563 269394571 -393232316 -839911255</internalNodes>
          <leafValues>
            -5.6399393081665039e-001 3.5919058322906494e-001</leafValues></_>
        <_>
          <internalNodes>
            0 -1 213 -35133530 392381994 120996976 -33571064 1877466106
            237011302 1173804997 -1610876946</internalNodes>
          <leafValues>
            -4.0636315941810608e-001 5.3813993930816650e-001</leafValues></_>
        <_>
          <internalNodes>
            0 -1 22 71613588 -7699447 1426462685 532812850 -2007721555
            -1244522296 -2002998530 710543483</internalNodes>
          <leafValues>
            -5.5200773477554321e-001 4.2655923962593079e-001</leafValues></_>
        <_>
          <internalNodes>
            0 -1 107 -1863923201 -49344490 2080342015 1526744232
            -1124565490 -15531524 -1112146178 -349443073</internalNodes>
          <leafValues>
            -3.7384262681007385e-001 6.1316430568695068e-001</leafValues></_>
        <_>
          <internalNodes>
            0 -1 92 -13128030 1367444704 537411716 -1719373820
            1938751684 135270530 -1862097984 1188036546</internalNodes>
          <leafValues>
            -5.1173400878906250e-001 4.3540957570075989e-001</leafValues></_>
        <_>
          <internalNodes>
            0 -1 141 622075221 -1090383531 1363761627 -123907914
            -1407688193 -117325173 -1576899592 -1431165208</internalNodes>
          <leafValues>
            -6.0711026191711426e-001 3.5542374849319458e-001</leafValues></_>
        <_>
          <internalNodes>
            0 -1 4 -519847546 -334520013 202043636 -323911274 537005354
            -79558631 193485 -68177446</internalNodes>
          <leafValues>
            -4.8944926261901855e-001 4.6182525157928467e-001</leafValues></_></weakClassifiers></_>
    <!-- stage 9 -->
    <_>
      <maxWeakCount>16</maxWeakCount>
      <stageThreshold>-1.0365560054779053e+000</stageThreshold>
      <weakClassifiers>
        <_>
          <internalNodes>
            0 -1 171 1594842965 1602117445 -33611779 805265279 -2121729
            -8454177 -545390753 1332969295</internalNodes>
          <leafValues>
            -2.7506899833679199e-001 7.2858154773712158e-001</leafValues></_>
        <_>
          <internalNodes>
            0 -1 12 -823201842 -12915202 -1384345610 -819941390
            -1220485165 2146877439 -320008193 -2105813</internalNodes>
          <leafValues>
            -3.8672363758087158e-001 5.9348529577255249e-001</leafValues></_>
        <_>
          <internalNodes>
            0 -1 99 -1078017318 -1177419554 1499387606 1426072274
            -894728802 -350706015 -2012509188 -1020739094</internalNodes>
          <leafValues>
            -6.2293708324432373e-001 3.8275867700576782e-001</leafValues></_>
        <_>
          <internalNodes>
            0 -1 35 -1856986659 524290332 156336147 1073723699
            -1835490838 -76014968 -1831650901 -1346627160</internalNodes>
          <leafValues>
            -5.6140762567520142e-001 3.8064444065093994e-001</leafValues></_>
        <_>
          <internalNodes>
            0 -1 190 -356143582 1871839367 -1597784060 -1052325939
            -956112621 563222 1650159682 -135275521</internalNodes>
          <leafValues>
            -4.9032551050186157e-001 4.3791481852531433e-001</leafValues></_>
        <_>
          <internalNodes>
            0 -1 78 -1329867683 -109431428 -201329665 -1309123089
            -1191381886 -1126189186 -1426591241 -1472500745</internalNodes>
          <leafValues>
            -3.6267113685607910e-001 6.1541289091110229e-001</leafValues></_>
        <_>
          <internalNodes>
            0 -1 48 -1151593223 1503281368 2031307519 -40692897
            -1467970373 -119975535 -1467839490 -1357381036</internalNodes>
          <leafValues>
            -4.5632979273796082e-001 4.3268677592277527e-001</leafValues></_>
        <_>
          <internalNodes>
            0 -1 202 -312740903 336126665 1614922041 294617121 823085980
            1501798425 143329689 155146729</internalNodes>
          <leafValues>
            -6.0259646177291870e-001 3.4532919526100159e-001</leafValues></_>
        <_>
          <internalNodes>
            0 -1 130 -785909248 -264256149 -1333922688 1500249062
            947307546 55539655 -262171958 -1011614755</internalNodes>
          <leafValues>
            -4.3014001846313477e-001 5.1182496547698975e-001</leafValues></_>
        <_>
          <internalNodes>
            0 -1 224 1078956970 869114318 -1860907416 76214731
            1170789026 74694658 -114434329 1097253814</internalNodes>
          <leafValues>
            -4.9217000603675842e-001 4.1295993328094482e-001</leafValues></_>
        <_>
          <internalNodes>
            0 -1 67 1622132742 1930479255 545976470 64815371 -348970702
            427835401 806015145 1275061999</internalNodes>
          <leafValues>
            -4.9940237402915955e-001 4.0797787904739380e-001</leafValues></_>
        <_>
          <internalNodes>
            0 -1 192 146802964 -1118109427 -1053637185 -1950785290
            -1333101392 -157286230 -1191032113 -1350563336</internalNodes>
          <leafValues>
            -5.3091639280319214e-001 3.7904924154281616e-001</leafValues></_>
        <_>
          <internalNodes>
            0 -1 157 -738115382 2115736044 -1862040686 -171868003
            -125583221 -1954308090 1743248123 -2113682366</internalNodes>
          <leafValues>
            -4.6272262930870056e-001 4.3581557273864746e-001</leafValues></_>
        <_>
          <internalNodes>
            0 -1 227 -346818810 -468564719 18633073 -637091773 12632070
            1493928197 -2113419255 2144768</internalNodes>
          <leafValues>
            -5.6134128570556641e-001 3.8781803846359253e-001</leafValues></_>
        <_>
          <internalNodes>
            0 -1 201 2074313482 1532563876 268632436 1494649093
            692933410 2046823040 1628294121 -201463123</internalNodes>
          <leafValues>
            -4.8781362175941467e-001 4.3672791123390198e-001</leafValues></_>
        <_>
          <internalNodes>
            0 -1 96 -165663443 423452671 -1509965835 905919869
            1597377709 -560185427 -169588738 -290836531</internalNodes>
          <leafValues>
            -3.7667128443717957e-001 5.6454741954803467e-001</leafValues></_></weakClassifiers></_>
    <!-- stage 10 -->
    <_>
      <maxWeakCount>18</maxWeakCount>
      <stageThreshold>-1.1031702756881714e+000</stageThreshold>
      <weakClassifiers>
        <_>
          <internalNodes>
            0 -1 150 -1413523376 -536903681 -1174610435 -1652588673
            -848425587 -17 1482213580 -1660945256</internalNodes>
          <leafValues>
            -2.1486267447471619e-001 7.4743026494979858e-001</leafValues></_>
        <_>
          <internalNodes>
            0 -1 134 -604178948 -1198729080 -2104739528 1431867562
            1423237628 167813184 1627502508 -67372293</internalNodes>
          <leafValues>
            -5.2661848068237305e-001 5.0437903404235840e-001</leafValues></_>
        <_>
          <internalNodes>
            0 -1 21 101640895 -616525752 864031929 2041692464 1646437259
            -125239160 -56898901 -1029243955</internalNodes>
          <leafValues>
            -4.7315812110900879e-001 4.8910710215568542e-001</leafValues></_>
        <_>
          <internalNodes>
            0 -1 200 -539775663 -1216446467 2147479317 -1208631426
            -1760051787 -587893089 -947937827 -50331651</internalNodes>
          <leafValues>
            -4.4329050183296204e-001 4.9382382631301880e-001</leafValues></_>
        <_>
          <internalNodes>
            0 -1 214 -379323678 -526339422 891355328 1570699776 17142111
            83900605 1207731708 -1</internalNodes>
          <leafValues>
            -4.1227647662162781e-001 5.4383647441864014e-001</leafValues></_>
        <_>
          <internalNodes>
            0 -1 49 -1341123115 -174829359 -1757327201 295538833
            -1179595848 -68320639 -1127962434 -1711797112</internalNodes>
          <leafValues>
            -4.6660628914833069e-001 4.6160900592803955e-001</leafValues></_>
        <_>
          <internalNodes>
            0 -1 104 -360209438 -238321521 -1017806255 1134023745
            193593263 -2012588918 1103356598 1121402883</internalNodes>
          <leafValues>
            -4.9180531501770020e-001 4.2507386207580566e-001</leafValues></_>
        <_>
          <internalNodes>
            0 -1 217 2033565630 -255016446 -1610381293 1617138178
            -2109411109 -2138324861 -2130541873 1244701186</internalNodes>
          <leafValues>
            -5.1130145788192749e-001 4.0796464681625366e-001</leafValues></_>
        <_>
          <internalNodes>
            0 -1 13 -355811089 -1106362045 714 572039990 -661174232
            303015043 -400129930 -411835589</internalNodes>
          <leafValues>
            -4.7023093700408936e-001 4.6165323257446289e-001</leafValues></_>
        <_>
          <internalNodes>
            0 -1 59 -225798878 -342982553 -1038449651 1898665826
            1729297162 1086325000 573522566 -1008739121</internalNodes>
          <leafValues>
            -4.5914295315742493e-001 4.5414501428604126e-001</leafValues></_>
        <_>
          <internalNodes>
            0 -1 149 429135668 -112344861 -783204961 2144146828
            -1475317509 -192706397 -1458314342 1001130341</internalNodes>
          <leafValues>
            -6.6878765821456909e-001 3.1661522388458252e-001</leafValues></_>
        <_>
          <internalNodes>
            0 -1 28 1359035131 1560563968 -875474538 1891696689
            211067138 1569325194 -194262895 -764399665</internalNodes>
          <leafValues>
            -4.7478073835372925e-001 4.3879643082618713e-001</leafValues></_>
        <_>
          <internalNodes>
            0 -1 220 -338770206 -1594340124 2063527497 -362150018
            1457330655 254508541 1089778966 -545522386</internalNodes>
          <leafValues>
            -4.1466432809829712e-001 5.0916218757629395e-001</leafValues></_>
        <_>
          <internalNodes>
            0 -1 62 1861484700 -1644689133 185663793 520782109
            -1432219232 -1440081526 1549142463 497683362</internalNodes>
          <leafValues>
            -6.1752909421920776e-001 3.6393693089485168e-001</leafValues></_>
        <_>
          <internalNodes>
            0 -1 56 -1324332879 -787480445 -1593290605 -577432181
            -1161252678 -1413422464 1117921512 939528192</internalNodes>
          <leafValues>
            -4.9872452020645142e-001 4.1216519474983215e-001</leafValues></_>
        <_>
          <internalNodes>
            0 -1 188 -265818326 1659627819 -1301171284 2062802875
            190084395 761361254 1962362767 -85461313</internalNodes>
          <leafValues>
            -4.4832310080528259e-001 4.8182600736618042e-001</leafValues></_>
        <_>
          <internalNodes>
            0 -1 110 -1901849071 2142852593 1073593847 -34515587
            1022539484 1073675580 -285046785 -1098222340</internalNodes>
          <leafValues>
            -4.5152631402015686e-001 4.8076966404914856e-001</leafValues></_>
        <_>
          <internalNodes>
            0 -1 11 -318321046 -1062027256 -2129622004 -1373855029
            1101342372 -1518174157 -498874799 -13371558</internalNodes>
          <leafValues>
            -5.5856066942214966e-001 4.0873187780380249e-001</leafValues></_></weakClassifiers></_>
    <!-- stage 11 -->
    <_>
      <maxWeakCount>18</maxWeakCount>
      <stageThreshold>-1.0726315975189209e+000</stageThreshold>
      <weakClassifiers>
        <_>
          <internalNodes>
            0 -1 101 -87569524 -134582474 -1266736446 -201669078
            -2101394 -553648177 -318789906 -134217809</internalNodes>
          <leafValues>
            -2.8831169009208679e-001 7.4862074851989746e-001</leafValues></_>
        <_>
          <internalNodes>
            0 -1 120 1043658071 -1145503874 1861287935 1601470445 -16385
            -1 -919805953 -1073938434</internalNodes>
          <leafValues>
            -4.6263790130615234e-001 5.4824954271316528e-001</leafValues></_>
        <_>
          <internalNodes>
            0 -1 36 285241555 1095856149 1879410717 1565872539
            1874019465 -1735491519 1673650305 2141573887</internalNodes>
          <leafValues>
            -6.0264527797698975e-001 3.7327805161476135e-001</leafValues></_>
        <_>
          <internalNodes>
            0 -1 172 -76033699 -16793729 -1073872899 2080308853
            -1419836020 -9019409 -2142320500 -157290673</internalNodes>
          <leafValues>
            -3.7840038537979126e-001 5.8986461162567139e-001</leafValues></_>
        <_>
          <internalNodes>
            0 -1 210 2034606650 1563177533 58856480 1091768341
            1342375870 3 1285221112 2120731578</internalNodes>
          <leafValues>
            -5.0279468297958374e-001 3.7568601965904236e-001</leafValues></_>
        <_>
          <internalNodes>
            0 -1 16 -393756456 872468753 570451276 -838650616
            -1040891549 -970388829 -2125413061 -974949517</internalNodes>
          <leafValues>
            -5.0848847627639771e-001 3.4974774718284607e-001</leafValues></_>
        <_>
          <internalNodes>
            0 -1 206 941617953 268552654 -2138402483 45387343
            -2004252600 -905131958 -1996308232 -240406390</internalNodes>
          <leafValues>
            -4.5997199416160583e-001 4.0747278928756714e-001</leafValues></_>
        <_>
          <internalNodes>
            0 -1 39 -1744830384 -1715974072 -147744261 252469848
            -1157293832 -1164894002 591493593 -1098379264</internalNodes>
          <leafValues>
            -5.5776596069335938e-001 3.5660025477409363e-001</leafValues></_>
        <_>
          <internalNodes>
            0 -1 81 -658812707 -1660617206 -147492 1039384519 -184629929
            -1658882730 -218306569 409386847</internalNodes>
          <leafValues>
            -3.7674015760421753e-001 4.9897128343582153e-001</leafValues></_>
        <_>
          <internalNodes>
            0 -1 60 240786155 406863872 184571023 570581441 183177905
            -92110808 183259371 2039007308</internalNodes>
          <leafValues>
            -4.7463625669479370e-001 3.9531099796295166e-001</leafValues></_>
        <_>
          <internalNodes>
            0 -1 61 -297802714 -1046855190 1086636056 969129995
            -1671329462 143156360 1412399238 1889261995</internalNodes>
          <leafValues>
            -4.7914114594459534e-001 3.8924652338027954e-001</leafValues></_>
        <_>
          <internalNodes>
            0 -1 230 1069003511 166022 -737079023 -234733054 -460988313
            -1148207062 -238853888 -354399484</internalNodes>
          <leafValues>
            -4.3242102861404419e-001 4.2320525646209717e-001</leafValues></_>
        <_>
          <internalNodes>
            0 -1 158 -1456539026 1590428033 352743424 1934049594
            -2012328821 -1442577912 1664519106 1073996643</internalNodes>
          <leafValues>
            -4.9578484892845154e-001 3.7683004140853882e-001</leafValues></_>
        <_>
          <internalNodes>
            0 -1 15 -804878820 1522991486 247 -903970160 1342177313
            -880205790 -1970339073 467688210</internalNodes>
          <leafValues>
            -5.8156788349151611e-001 3.1114822626113892e-001</leafValues></_>
        <_>
          <internalNodes>
            0 -1 70 1543555711 270012418 826642885 389185562 -930546549
            973670424 1074102434 -743925157</internalNodes>
          <leafValues>
            -4.3080326914787292e-001 4.2839735746383667e-001</leafValues></_>
        <_>
          <internalNodes>
            0 -1 226 -304356086 756150538 303732736 1402134666 565072471
            681738278 1137089415 -189371240</internalNodes>
          <leafValues>
            -4.4282817840576172e-001 4.1621321439743042e-001</leafValues></_>
        <_>
          <internalNodes>
            0 -1 8 970886541 -833108820 285289865 -1009991476 940185789
            -1962278908 1241555658 -1896955294</internalNodes>
          <leafValues>
            -4.1757571697235107e-001 4.4384068250656128e-001</leafValues></_>
        <_>
          <internalNodes>
            0 -1 34 1241639729 294402210 145707437 363330557 375230550
            512431539 -46223460 -1611670259</internalNodes>
          <leafValues>
            -4.1089397668838501e-001 4.7866114974021912e-001</leafValues></_></weakClassifiers></_>
    <!-- stage 12 -->
    <_>
      <maxWeakCount>17</maxWeakCount>
      <stageThreshold>-5.4604893922805786e-001</stageThreshold>
      <weakClassifiers>
        <_>
          <internalNodes>
            0 -1 147 -49285875 -1679852165 -1031 2013200335 -1899025142
            262889228 1057990155 -311689249</internalNodes>
          <leafValues>
            -1.5238817036151886e-001 7.4631708860397339e-001</leafValues></_>
        <_>
          <internalNodes>
            0 -1 122 -3487246 2141088123 -8721475 1460283008 -41947219
            -19 -135007249 -43323042</internalNodes>
          <leafValues>
            -3.8206714391708374e-001 5.3937274217605591e-001</leafValues></_>
        <_>
          <internalNodes>
            0 -1 131 230260191 -1089388145 826080603 -1151527533
            -1060449607 -594902962 -99968613 -1079501604</internalNodes>
          <leafValues>
            -4.2321887612342834e-001 4.5210820436477661e-001</leafValues></_>
        <_>
          <internalNodes>
            0 -1 103 2113929488 61276680 -2054057249 462357779 407408856
            -1951924101 1350862591 196004095</internalNodes>
          <leafValues>
            -4.6293273568153381e-001 4.0503475069999695e-001</leafValues></_>
        <_>
          <internalNodes>
            0 -1 6 2110713599 -604066074 -1158807829 -288364370
            1895703883 -870121438 -2032144917 -282094920</internalNodes>
          <leafValues>
            -3.5479232668876648e-001 5.0925689935684204e-001</leafValues></_>
        <_>
          <internalNodes>
            0 -1 187 -454055677 -1049686041 -17094016 -696259059
            1046975623 1203732469 1198778322 -742656535</internalNodes>
          <leafValues>
            -3.5910314321517944e-001 4.7942948341369629e-001</leafValues></_>
        <_>
          <internalNodes>
            0 -1 2 -833237818 -648707689 1224835333 -251559506
            1922109648 -1610217470 -397626905 -538024122</internalNodes>
          <leafValues>
            -4.5735636353492737e-001 3.6102578043937683e-001</leafValues></_>
        <_>
          <internalNodes>
            0 -1 215 2052846341 553902529 26546192 630756179 -716711024
            690112809 -508867576 150818257</internalNodes>
          <leafValues>
            -6.6231429576873779e-001 2.6249468326568604e-001</leafValues></_>
        <_>
          <internalNodes>
            0 -1 31 1639728497 -2005654632 407966983 -903211121
            168308796 -106413870 -1702228567 -1896847516</internalNodes>
          <leafValues>
            -5.0379669666290283e-001 3.5402539372444153e-001</leafValues></_>
        <_>
          <internalNodes>
            0 -1 209 -880809282 1724496129 1663381584 -446027224
            105158943 1124084656 -815425541 -26249301</internalNodes>
          <leafValues>
            -3.9227554202079773e-001 4.7584378719329834e-001</leafValues></_>
        <_>
          <internalNodes>
            0 -1 169 -1413009963 1811873535 1725791958 1035714285
            134939274 -289495075 -276067954 -378544993</internalNodes>
          <leafValues>
            -3.4665983915328979e-001 4.9579080939292908e-001</leafValues></_>
        <_>
          <internalNodes>
            0 -1 41 2068183197 1933181442 1360462544 1531854932
            -947099626 -795342336 1325451463 420716687</internalNodes>
          <leafValues>
            -4.2926701903343201e-001 4.2280820012092590e-001</leafValues></_>
        <_>
          <internalNodes>
            0 -1 46 -837807948 410231872 -922681081 321777759
            -1641545568 -1205073920 205523131 531241473</internalNodes>
          <leafValues>
            -5.7089203596115112e-001 3.0790755152702332e-001</leafValues></_>
        <_>
          <internalNodes>
            0 -1 128 -540299830 1398417731 816302210 -640925490
            1649164490 1348485450 -2143794968 1368909770</internalNodes>
          <leafValues>
            -5.5154627561569214e-001 3.1318789720535278e-001</leafValues></_>
        <_>
          <internalNodes>
            0 -1 160 51525779 -1082080904 -647780327 1491157638
            -348011023 -1961983872 -1115674391 -219263068</internalNodes>
          <leafValues>
            -5.0207036733627319e-001 3.3333620429039001e-001</leafValues></_>
        <_>
          <internalNodes>
            0 -1 229 -474486873 1137387388 2147450656 1400569836
            -403198191 1199536062 -536877712 -1241723088</internalNodes>
          <leafValues>
            -4.1339784860610962e-001 4.6819016337394714e-001</leafValues></_>
        <_>
          <internalNodes>
            0 -1 65 -1473159915 -1625673380 1359026143 1947758749
            -83881856 -1080418176 570968965 -1171612203</internalNodes>
          <leafValues>
            -4.2613074183464050e-001 4.3554589152336121e-001</leafValues></_></weakClassifiers></_>
    <!-- stage 13 -->
    <_>
      <maxWeakCount>19</maxWeakCount>
      <stageThreshold>-7.8805768489837646e-001</stageThreshold>
      <weakClassifiers>
        <_>
          <internalNodes>
            0 -1 156 -1103151088 -164132 2063490329 -1073775241
            -570489623 -67239937 -1797319476 -1367650857</internalNodes>
          <leafValues>
            -2.5698325037956238e-001 7.2094118595123291e-001</leafValues></_>
        <_>
          <internalNodes>
            0 -1 178 -10903679 -570589249 -65636 -167807115 1035992221
            -1187840643 -536871459 -1648623621</internalNodes>
          <leafValues>
            -3.7254652380943298e-001 5.9719032049179077e-001</leafValues></_>
        <_>
          <internalNodes>
            0 -1 80 -1057227877 69129 321904637 253492047 -1891401842
            152266553 509607935 -1080049937</internalNodes>
          <leafValues>
            -3.3852726221084595e-001 6.0636401176452637e-001</leafValues></_>
        <_>
          <internalNodes>
            0 -1 84 -125832961 -1255932173 -855770113 488234815
            -855644561 -1079673467 -1460667649 -2000963617</internalNodes>
          <leafValues>
            -2.8098452091217041e-001 6.8161594867706299e-001</leafValues></_>
        <_>
          <internalNodes>
            0 -1 161 -206993063 -612233077 -1013933641 -855638015
            -628455191 -100481013 -1878751076 296632863</internalNodes>
          <leafValues>
            -3.8755783438682556e-001 4.2993348836898804e-001</leafValues></_>
        <_>
          <internalNodes>
            0 -1 23 3951099 421230645 -2146852799 1326526802 818892829
            -1182646270 1099522514 281933694</internalNodes>
          <leafValues>
            -5.7154804468154907e-001 2.9757967591285706e-001</leafValues></_>
        <_>
          <internalNodes>
            0 -1 124 -7238802 106211588 1243874342 531890451 1426723540
            673465600 1510976143 805191631</internalNodes>
          <leafValues>
            -5.4048508405685425e-001 3.0761241912841797e-001</leafValues></_>
        <_>
          <internalNodes>
            0 -1 184 -354491614 -490302526 -1070452014 63886225
            662960986 133410 1108398755 -251989373</internalNodes>
          <leafValues>
            -4.6323651075363159e-001 3.5302907228469849e-001</leafValues></_>
        <_>
          <internalNodes>
            0 -1 94 727455225 587290897 -1593779205 -1715793663
            -2147476999 -954562423 -401782039 691804484</internalNodes>
          <leafValues>
            -6.6441684961318970e-001 2.5984606146812439e-001</leafValues></_>
        <_>
          <internalNodes>
            0 -1 10 -301410130 -1903951871 638192066 -865189687
            190391371 2041188357 -100129245 -829704641</internalNodes>
          <leafValues>
            -5.7741200923919678e-001 2.7596569061279297e-001</leafValues></_>
        <_>
          <internalNodes>
            0 -1 139 487598104 336398992 1895859213 -346353323 34214506
            -1685564416 -651555285 733942284</internalNodes>
          <leafValues>
            -4.9659678339958191e-001 3.4489870071411133e-001</leafValues></_>
        <_>
          <internalNodes>
            0 -1 45 -912073225 -1825254148 -235226051 351925120
            485899128 -926021040 -1588292640 -574057237</internalNodes>
          <leafValues>
            -3.0368325114250183e-001 5.9320455789566040e-001</leafValues></_>
        <_>
          <internalNodes>
            0 -1 183 2030899505 1162037663 1211160712 -21856128
            1309681960 -645454317 1208246475 2087391065</internalNodes>
          <leafValues>
            -5.0619167089462280e-001 3.5322102904319763e-001</leafValues></_>
        <_>
          <internalNodes>
            0 -1 58 417454553 1342722818 -1056238769 960167936
            -1719039717 -349634008 -1257651829 414118026</internalNodes>
          <leafValues>
            -4.4781488180160522e-001 3.8929581642150879e-001</leafValues></_>
        <_>
          <internalNodes>
            0 -1 221 1357631778 308625705 25231366 -1172733853
            1484866180 268699660 -1044321829 1470885801</internalNodes>
          <leafValues>
            -5.3846901655197144e-001 3.2486397027969360e-001</leafValues></_>
        <_>
          <internalNodes>
            0 -1 83 30948256 -54505079 1476463581 -1143471847
            -1188876105 -1474581368 -1818509859 -1096802688</internalNodes>
          <leafValues>
            -5.4960602521896362e-001 3.1509152054786682e-001</leafValues></_>
        <_>
          <internalNodes>
            0 -1 87 -959528702 -792017900 1393787652 328141643
            -349386495 159515264 -737017131 869227402</internalNodes>
          <leafValues>
            -5.8413767814636230e-001 2.9942014813423157e-001</leafValues></_>
        <_>
          <internalNodes>
            0 -1 118 1734484441 -1140416717 1051438429 730139932
            -806134592 -1264771074 490600667 -354950373</internalNodes>
          <leafValues>
            -2.9200220108032227e-001 6.2355428934097290e-001</leafValues></_>
        <_>
          <internalNodes>
            0 -1 144 143812853 -2079325016 1291933105 -844926958
            -677261082 -897340883 -670981598 -1155118026</internalNodes>
          <leafValues>
            -4.5295745134353638e-001 4.0495279431343079e-001</leafValues></_></weakClassifiers></_>
    <!-- stage 14 -->
    <_>
      <maxWeakCount>18</maxWeakCount>
      <stageThreshold>-1.0181062221527100e+000</stageThreshold>
      <weakClassifiers>
        <_>
          <internalNodes>
            0 -1 86 199207679 2134474280 134482619 33554538 -319004682
            -603979777 78342123 1027711</internalNodes>
          <leafValues>
            -2.7340129017829895e-001 7.2626620531082153e-001</leafValues></_>
        <_>
          <internalNodes>
            0 -1 195 -245373031 -148931115 2113142655 1577041775
            -37814536 -1117814920 -133157 -268444362</internalNodes>
          <leafValues>
            -2.8622385859489441e-001 6.5078055858612061e-001</leafValues></_>
        <_>
          <internalNodes>
            0 -1 100 -104664166 -7934826 2136915347 1258291202
            -1343234137 -1613792273 -545313313 -619711286</internalNodes>
          <leafValues>
            -4.2003250122070313e-001 4.6286875009536743e-001</leafValues></_>
        <_>
          <internalNodes>
            0 -1 140 589043161 -40740714 1124520153 -707634293
            -1198243079 -620724093 -1438622042 1060642480</internalNodes>
          <leafValues>
            -6.4237487316131592e-001 2.8922098875045776e-001</leafValues></_>
        <_>
          <internalNodes>
            0 -1 176 -113259427 -815932045 -268518661 -1107492865
            -338384690 -1073750593 -522728436 1050013406</internalNodes>
          <leafValues>
            -3.5082042217254639e-001 4.9516302347183228e-001</leafValues></_>
        <_>
          <internalNodes>
            0 -1 7 -289745322 -996933630 188862486 -420945329 -108937184
            581321297 -655366856 -838605189</internalNodes>
          <leafValues>
            -4.7335508465766907e-001 3.5906109213829041e-001</leafValues></_>
        <_>
          <internalNodes>
            0 -1 204 687886612 505417929 658887485 2036207737
            -1978622792 -1149169349 -1934968451 -1886382044</internalNodes>
          <leafValues>
            -4.8008468747138977e-001 3.6008352041244507e-001</leafValues></_>
        <_>
          <internalNodes>
            0 -1 85 416829951 -538019040 -85663273 281151718 1853775475
            1795161789 -1816153345 -879039649</internalNodes>
          <leafValues>
            -3.6063328385353088e-001 4.9913752079010010e-001</leafValues></_>
        <_>
          <internalNodes>
            0 -1 136 -350495832 95061612 -1073577458 1285080467
            1095959092 369623057 250527787 2060176014</internalNodes>
          <leafValues>
            -4.6325910091400146e-001 3.8009148836135864e-001</leafValues></_>
        <_>
          <internalNodes>
            0 -1 186 254539569 130285733 -1870430059 -595099565
            -2004827968 -1073135383 -2146729912 -498938983</internalNodes>
          <leafValues>
            -4.8612305521965027e-001 3.5733950138092041e-001</leafValues></_>
        <_>
          <internalNodes>
            0 -1 63 414717104 -1651568559 -1819667269 29837533
            2047085464 -620092790 -1019725341 243925152</internalNodes>
          <leafValues>
            -5.3307843208312988e-001 3.1988754868507385e-001</leafValues></_>
        <_>
          <internalNodes>
            0 -1 185 -546184361 -1074320537 -1086916620 527432511
            -546939580 -194675419 -1075804294 -67136197</internalNodes>
          <leafValues>
            -3.4209367632865906e-001 5.2372646331787109e-001</leafValues></_>
        <_>
          <internalNodes>
            0 -1 145 -1641541415 -612236647 -1157512989 1573720768
            -1585264117 -374800254 -1593587297 2055259424</internalNodes>
          <leafValues>
            -4.2745974659919739e-001 4.1148966550827026e-001</leafValues></_>
        <_>
          <internalNodes>
            0 -1 25 -991600181 -686350317 33931482 940904468 679743490
            805915304 687881949 -1172108413</internalNodes>
          <leafValues>
            -3.8166111707687378e-001 4.6921926736831665e-001</leafValues></_>
        <_>
          <internalNodes>
            0 -1 116 -824721150 1938022465 822890786 395404399 37403282
            4720640 1359561122 1993265819</internalNodes>
          <leafValues>
            -4.8211017251014709e-001 3.7302154302597046e-001</leafValues></_>
        <_>
          <internalNodes>
            0 -1 69 -1129834280 -346472235 -1744610145 -1761263616
            -1735605590 -1473380341 -1307049313 547403</internalNodes>
          <leafValues>
            -5.4252225160598755e-001 3.3094421029090881e-001</leafValues></_>
        <_>
          <internalNodes>
            0 -1 163 -1043758419 735433353 -1920904883 -1118830591
            2050194911 -24723326 67330267 1104269555</internalNodes>
          <leafValues>
            -4.3972685933113098e-001 4.0752050280570984e-001</leafValues></_>
        <_>
          <internalNodes>
            0 -1 14 -1008942610 1905492079 21004686 -1567469541
            -2147475331 -1860141054 -369005878 458426991</internalNodes>
          <leafValues>
            -4.7452571988105774e-001 3.9992240071296692e-001</leafValues></_></weakClassifiers></_>
    <!-- stage 15 -->
    <_>
      <maxWeakCount>17</maxWeakCount>
      <stageThreshold>-9.9188423156738281e-001</stageThreshold>
      <weakClassifiers>
        <_>
          <internalNodes>
            0 -1 121 -1969224704 -1074900994 1073643518 936386224
            -1073823756 -18429 -285344755 -579428929</internalNodes>
          <leafValues>
            -5.8164644241333008e-001 7.0237833261489868e-001</leafValues></_>
        <_>
          <internalNodes>
            0 -1 196 -3188255 1235296272 -2147348023 -12385535
            1216414696 134433360 1073947113 -1426388759</internalNodes>
          <leafValues>
            -5.1416426897048950e-001 5.1937550306320190e-001</leafValues></_>
        <_>
          <internalNodes>
            0 -1 50 -1204872998 -376834041 269500938 135350991
            -1098261568 -1929248768 -838096760 -292976114</internalNodes>
          <leafValues>
            -5.6633561849594116e-001 3.7713012099266052e-001</leafValues></_>
        <_>
          <internalNodes>
            0 -1 225 -950550786 826456742 -1506726896 -1838022942
            -729949738 1343779704 -168329259 -776470533</internalNodes>
          <leafValues>
            -3.6906760931015015e-001 5.1972121000289917e-001</leafValues></_>
        <_>
          <internalNodes>
            0 -1 17 -345125137 203849906 1258637272 -1437956984
            -1600837530 1149911073 -1559707640 -1031798937</internalNodes>
          <leafValues>
            -4.9935555458068848e-001 4.1648408770561218e-001</leafValues></_>
        <_>
          <internalNodes>
            0 -1 98 403706288 -541982467 402788573 -16563072 144750667
            -662073141 -1144862165 108532032</internalNodes>
          <leafValues>
            -6.2306869029998779e-001 2.7041089534759521e-001</leafValues></_>
        <_>
          <internalNodes>
            0 -1 51 -696250088 -1256979326 540016857 999002945
            -359931442 -1968701062 8618118 -1646600185</internalNodes>
          <leafValues>
            -4.2536285519599915e-001 4.4578292965888977e-001</leafValues></_>
        <_>
          <internalNodes>
            0 -1 113 -477106142 1405768066 847774122 1954467841
            -1878334463 289 1445636451 1394198539</internalNodes>
          <leafValues>
            -5.5643111467361450e-001 3.3318510651588440e-001</leafValues></_>
        <_>
          <internalNodes>
            0 -1 19 -1001959834 -787227453 -771702463 -1014923232
            -973043040 -2146269039 -1037966645 -1022932992</internalNodes>
          <leafValues>
            -5.0169354677200317e-001 3.5855957865715027e-001</leafValues></_>
        <_>
          <internalNodes>
            0 -1 168 -1187868331 -520076528 -1979585797 -208629231
            -1168077880 -1341489134 -2004713343 161318110</internalNodes>
          <leafValues>
            -4.2544993758201599e-001 4.5382320880889893e-001</leafValues></_>
        <_>
          <internalNodes>
            0 -1 194 286269820 -544517155 1091638343 -740928175
            -1970797841 -828782464 763939641 -1699727360</internalNodes>
          <leafValues>
            -5.6818526983261108e-001 3.3911302685737610e-001</leafValues></_>
        <_>
          <internalNodes>
            0 -1 199 1867506474 -1090379638 286429440 1459794240
            -1877383195 554827777 1170754463 -341980627</internalNodes>
          <leafValues>
            -4.5602059364318848e-001 4.2430689930915833e-001</leafValues></_>
        <_>
          <internalNodes>
            0 -1 20 440457459 -209595392 -627310583 -1065066224
            2047974274 1696661505 -1009172406 1271409902</internalNodes>
          <leafValues>
            -4.9817928671836853e-001 3.8543212413787842e-001</leafValues></_>
        <_>
          <internalNodes>
            0 -1 79 -984367072 -1185680505 427622450 -207092134
            -661961677 134480000 1476886951 1862586427</internalNodes>
          <leafValues>
            -5.0355607271194458e-001 3.7652477622032166e-001</leafValues></_>
        <_>
          <internalNodes>
            0 -1 189 828975981 156332209 -1607417506 -208911984
            1208162128 -1429790313 -2119832775 -1460223622</internalNodes>
          <leafValues>
            -4.7410094738006592e-001 4.1029134392738342e-001</leafValues></_>
        <_>
          <internalNodes>
            0 -1 222 -267857268 247500940 1350704536 2132018180
            -930307872 218112240 -1828642168 -1729220608</internalNodes>
          <leafValues>
            -4.8605820536613464e-001 4.3117147684097290e-001</leafValues></_>
        <_>
          <internalNodes>
            0 -1 26 -560844458 -809539595 -1092436236 1015182166
            -1066990584 -1460794713 -928344919 -31505718</internalNodes>
          <leafValues>
            -4.1296496987342834e-001 4.7825008630752563e-001</leafValues></_></weakClassifiers></_></stages>
  <features>
    <_>
      <rect>
        0 0 30 8</rect></_>
    <_>
      <rect>
        0 1 11 7</rect></_>
    <_>
      <rect>
        0 4 12 5</rect></_>
    <_>
      <rect>
        0 6 9 7</rect></_>
    <_>
      <rect>
        0 8 8 2</rect></_>
    <_>
      <rect>
        0 10 12 4</rect></_>
    <_>
      <rect>
        0 10 19 4</rect></_>
    <_>
      <rect>
        0 11 7 4</rect></_>
    <_>
      <rect>
        0 11 21 3</rect></_>
    <_>
      <rect>
        0 12 15 5</rect></_>
    <_>
      <rect>
        0 13 10 2</rect></_>
    <_>
      <rect>
        0 14 11 3</rect></_>
    <_>
      <rect>
        0 15 11 4</rect></_>
    <_>
      <rect>
        0 18 7 2</rect></_>
    <_>
      <rect>
        0 18 10 3</rect></_>
    <_>
      <rect>
        0 21 13 2</rect></_>
    <_>
      <rect>
        1 7 10 3</rect></_>
    <_>
      <rect>
        1 10 7 3</rect></_>
    <_>
      <rect>
        1 11 13 2</rect></_>
    <_>
      <rect>
        2 0 9 8</rect></_>
    <_>
      <rect>
        2 1 21 9</rect></_>
    <_>
      <rect>
        2 4 21 6</rect></_>
    <_>
      <rect>
        7 18 11 2</rect></_>
    <_>
      <rect>
        9 6 19 5</rect></_>
    <_>
      <rect>
        10 8 15 2</rect></_>
    <_>
      <rect>
        10 11 10 2</rect></_>
    <_>
      <rect>
        11 9 7 2</rect></_>
    <_>
      <rect>
        12 18 13 2</rect></_>
    <_>
      <rect>
        13 6 14 4</rect></_>
    <_>
      <rect>
        14 5 11 2</rect></_>
    <_>
      <rect>
        14 18 15 2</rect></_>
    <_>
      <rect>
        15 2 6 1</rect></_>
    <_>
      <rect>
        15 5 8 2</rect></_>
    <_>
      <rect>
        15 9 14 2</rect></_>
    <_>
      <rect>
        15 15 19 2</rect></_>
    <_>
      <rect>
        15 15 20 5</rect></_>
    <_>
      <rect>
        16 3 13 5</rect></_>
    <_>
      <rect>
        17 0 6 2</rect></_>
    <_>
      <rect>
        17 3 14 3</rect></_>
    <_>
      <rect>
        17 6 6 1</rect></_>
    <_>
      <rect>
        17 9 15 2</rect></_>
    <_>
      <rect>
        17 10 14 2</rect></_>
    <_>
      <rect>
        17 12 4 3</rect></_>
    <_>
      <rect>
        17 20 16 2</rect></_>
    <_>
      <rect>
        18 6 12 2</rect></_>
    <_>
      <rect>
        18 11 16 2</rect></_>
    <_>
      <rect>
        18 18 9 2</rect></_>
    <_>
      <rect>
        18 18 20 4</rect></_>
    <_>
      <rect>
        19 4 5 1</rect></_>
    <_>
      <rect>
        19 7 6 1</rect></_>
    <_>
      <rect>
        19 8 20 3</rect></_>
    <_>
      <rect>
        19 18 20 2</rect></_>
    <_>
      <rect>
        20 1 4 3</rect></_>
    <_>
      <rect>
        20 18 18 3</rect></_>
    <_>
      <rect>
        20 21 10 2</rect></_>
    <_>
      <rect>
        21 0 5 1</rect></_>
    <_>
      <rect>
        21 8 7 1</rect></_>
    <_>
      <rect>
        22 14 17 2</rect></_>
    <_>
      <rect>
        23 8 10 2</rect></_>
    <_>
      <rect>
        23 11 2 2</rect></_>
    <_>
      <rect>
        23 11 18 4</rect></_>
    <_>
      <rect>
        23 12 2 2</rect></_>
    <_>
      <rect>
        23 17 8 2</rect></_>
    <_>
      <rect>
        23 20 9 1</rect></_>
    <_>
      <rect>
        23 20 13 3</rect></_>
    <_>
      <rect>
        24 6 6 1</rect></_>
    <_>
      <rect>
        24 6 10 2</rect></_>
    <_>
      <rect>
        24 9 2 4</rect></_>
    <_>
      <rect>
        24 12 3 3</rect></_>
    <_>
      <rect>
        25 8 7 1</rect></_>
    <_>
      <rect>
        25 9 11 3</rect></_>
    <_>
      <rect>
        25 9 18 2</rect></_>
    <_>
      <rect>
        26 3 3 1</rect></_>
    <_>
      <rect>
        26 6 6 1</rect></_>
    <_>
      <rect>
        26 9 16 2</rect></_>
    <_>
      <rect>
        26 11 3 3</rect></_>
    <_>
      <rect>
        27 10 16 4</rect></_>
    <_>
      <rect>
        27 13 3 2</rect></_>
    <_>
      <rect>
        28 9 9 1</rect></_>
    <_>
      <rect>
        28 11 2 3</rect></_>
    <_>
      <rect>
        28 16 15 2</rect></_>
    <_>
      <rect>
        29 10 7 1</rect></_>
    <_>
      <rect>
        29 20 12 1</rect></_>
    <_>
      <rect>
        29 25 2 1</rect></_>
    <_>
      <rect>
        30 10 8 1</rect></_>
    <_>
      <rect>
        30 10 12 3</rect></_>
    <_>
      <rect>
        30 10 13 4</rect></_>
    <_>
      <rect>
        30 13 2 2</rect></_>
    <_>
      <rect>
        30 13 2 4</rect></_>
    <_>
      <rect>
        30 21 9 1</rect></_>
    <_>
      <rect>
        30 21 13 3</rect></_>
    <_>
      <rect>
        31 4 13 5</rect></_>
    <_>
      <rect>
        31 13 2 3</rect></_>
    <_>
      <rect>
        32 5 9 2</rect></_>
    <_>
      <rect>
        33 22 5 2</rect></_>
    <_>
      <rect>
        34 7 2 3</rect></_>
    <_>
      <rect>
        34 19 5 1</rect></_>
    <_>
      <rect>
        34 20 7 1</rect></_>
    <_>
      <rect>
        34 26 4 1</rect></_>
    <_>
      <rect>
        35 9 9 2</rect></_>
    <_>
      <rect>
        35 10 8 2</rect></_>
    <_>
      <rect>
        35 10 11 1</rect></_>
    <_>
      <rect>
        35 11 2 2</rect></_>
    <_>
      <rect>
        35 19 13 1</rect></_>
    <_>
      <rect>
        36 9 2 2</rect></_>
    <_>
      <rect>
        36 9 7 2</rect></_>
    <_>
      <rect>
        36 9 9 2</rect></_>
    <_>
      <rect>
        36 10 6 2</rect></_>
    <_>
      <rect>
        36 12 2 3</rect></_>
    <_>
      <rect>
        36 13 3 4</rect></_>
    <_>
      <rect>
        36 23 5 1</rect></_>
    <_>
      <rect>
        37 3 14 2</rect></_>
    <_>
      <rect>
        37 6 11 4</rect></_>
    <_>
      <rect>
        37 12 2 3</rect></_>
    <_>
      <rect>
        38 7 6 3</rect></_>
    <_>
      <rect>
        38 10 2 3</rect></_>
    <_>
      <rect>
        38 13 2 3</rect></_>
    <_>
      <rect>
        38 16 10 2</rect></_>
    <_>
      <rect>
        38 19 13 1</rect></_>
    <_>
      <rect>
        38 23 5 2</rect></_>
    <_>
      <rect>
        39 5 9 8</rect></_>
    <_>
      <rect>
        39 8 7 2</rect></_>
    <_>
      <rect>
        39 9 5 2</rect></_>
    <_>
      <rect>
        39 12 2 3</rect></_>
    <_>
      <rect>
        39 15 3 3</rect></_>
    <_>
      <rect>
        39 24 4 1</rect></_>
    <_>
      <rect>
        40 10 2 3</rect></_>
    <_>
      <rect>
        40 13 2 3</rect></_>
    <_>
      <rect>
        40 13 3 2</rect></_>
    <_>
      <rect>
        41 6 3 1</rect></_>
    <_>
      <rect>
        41 12 2 2</rect></_>
    <_>
      <rect>
        42 7 3 1</rect></_>
    <_>
      <rect>
        42 8 4 1</rect></_>
    <_>
      <rect>
        42 11 2 4</rect></_>
    <_>
      <rect>
        42 14 2 4</rect></_>
    <_>
      <rect>
        43 10 2 3</rect></_>
    <_>
      <rect>
        43 14 2 3</rect></_>
    <_>
      <rect>
        43 16 1 1</rect></_>
    <_>
      <rect>
        43 16 2 3</rect></_>
    <_>
      <rect>
        43 20 6 1</rect></_>
    <_>
      <rect>
        44 7 3 1</rect></_>
    <_>
      <rect>
        44 7 5 1</rect></_>
    <_>
      <rect>
        44 9 15 4</rect></_>
    <_>
      <rect>
        44 10 8 2</rect></_>
    <_>
      <rect>
        45 9 3 1</rect></_>
    <_>
      <rect>
        45 9 4 2</rect></_>
    <_>
      <rect>
        45 9 15 6</rect></_>
    <_>
      <rect>
        45 10 15 3</rect></_>
    <_>
      <rect>
        46 8 7 2</rect></_>
    <_>
      <rect>
        47 6 2 1</rect></_>
    <_>
      <rect>
        47 9 7 2</rect></_>
    <_>
      <rect>
        47 10 8 2</rect></_>
    <_>
      <rect>
        47 11 2 2</rect></_>
    <_>
      <rect>
        48 8 3 1</rect></_>
    <_>
      <rect>
        48 10 2 3</rect></_>
    <_>
      <rect>
        48 12 9 3</rect></_>
    <_>
      <rect>
        49 8 6 2</rect></_>
    <_>
      <rect>
        49 9 2 3</rect></_>
    <_>
      <rect>
        49 11 2 3</rect></_>
    <_>
      <rect>
        50 7 3 1</rect></_>
    <_>
      <rect>
        50 9 2 1</rect></_>
    <_>
      <rect>
        50 9 6 2</rect></_>
    <_>
      <rect>
        50 9 7 1</rect></_>
    <_>
      <rect>
        50 10 4 3</rect></_>
    <_>
      <rect>
        50 14 2 4</rect></_>
    <_>
      <rect>
        50 26 5 1</rect></_>
    <_>
      <rect>
        51 6 8 8</rect></_>
    <_>
      <rect>
        51 7 7 3</rect></_>
    <_>
      <rect>
        51 10 5 2</rect></_>
    <_>
      <rect>
        51 11 8 2</rect></_>
    <_>
      <rect>
        51 15 8 2</rect></_>
    <_>
      <rect>
        52 3 11 6</rect></_>
    <_>
      <rect>
        52 10 5 2</rect></_>
    <_>
      <rect>
        52 14 8 3</rect></_>
    <_>
      <rect>
        52 24 4 2</rect></_>
    <_>
      <rect>
        53 5 6 8</rect></_>
    <_>
      <rect>
        53 9 4 2</rect></_>
    <_>
      <rect>
        54 5 5 4</rect></_>
    <_>
      <rect>
        56 15 11 4</rect></_>
    <_>
      <rect>
        57 0 11 6</rect></_>
    <_>
      <rect>
        57 5 6 1</rect></_>
    <_>
      <rect>
        58 1 4 2</rect></_>
    <_>
      <rect>
        58 14 10 4</rect></_>
    <_>
      <rect>
        59 11 6 3</rect></_>
    <_>
      <rect>
        59 14 2 2</rect></_>
    <_>
      <rect>
        59 15 6 2</rect></_>
    <_>
      <rect>
        60 5 9 6</rect></_>
    <_>
      <rect>
        60 13 1 1</rect></_>
    <_>
      <rect>
        60 13 2 2</rect></_>
    <_>
      <rect>
        60 13 5 3</rect></_>
    <_>
      <rect>
        60 14 1 1</rect></_>
    <_>
      <rect>
        60 14 1 2</rect></_>
    <_>
      <rect>
        60 24 3 1</rect></_>
    <_>
      <rect>
        61 0 4 2</rect></_>
    <_>
      <rect>
        61 5 4 1</rect></_>
    <_>
      <rect>
        61 7 7 7</rect></_>
    <_>
      <rect>
        61 11 6 6</rect></_>
    <_>
      <rect>
        62 9 8 7</rect></_>
    <_>
      <rect>
        62 13 1 1</rect></_>
    <_>
      <rect>
        62 14 2 2</rect></_>
    <_>
      <rect>
        62 17 8 3</rect></_>
    <_>
      <rect>
        63 12 2 3</rect></_>
    <_>
      <rect>
        63 12 9 6</rect></_>
    <_>
      <rect>
        63 24 4 2</rect></_>
    <_>
      <rect>
        63 26 5 1</rect></_>
    <_>
      <rect>
        64 5 8 6</rect></_>
    <_>
      <rect>
        64 6 8 6</rect></_>
    <_>
      <rect>
        64 11 8 5</rect></_>
    <_>
      <rect>
        64 12 8 6</rect></_>
    <_>
      <rect>
        64 15 2 2</rect></_>
    <_>
      <rect>
        65 9 3 4</rect></_>
    <_>
      <rect>
        65 11 3 4</rect></_>
    <_>
      <rect>
        65 13 1 1</rect></_>
    <_>
      <rect>
        65 13 2 2</rect></_>
    <_>
      <rect>
        66 14 2 2</rect></_>
    <_>
      <rect>
        66 14 8 5</rect></_>
    <_>
      <rect>
        66 16 8 4</rect></_>
    <_>
      <rect>
        67 0 3 9</rect></_>
    <_>
      <rect>
        68 0 7 7</rect></_>
    <_>
      <rect>
        68 10 7 4</rect></_>
    <_>
      <rect>
        68 12 1 2</rect></_>
    <_>
      <rect>
        69 10 3 2</rect></_>
    <_>
      <rect>
        69 16 2 1</rect></_>
    <_>
      <rect>
        70 10 6 5</rect></_>
    <_>
      <rect>
        72 8 3 3</rect></_>
    <_>
      <rect>
        72 11 3 4</rect></_>
    <_>
      <rect>
        76 8 4 2</rect></_>
    <_>
      <rect>
        78 0 4 7</rect></_>
    <_>
      <rect>
        79 10 3 4</rect></_>
    <_>
      <rect>
        80 9 2 2</rect></_>
    <_>
      <rect>
        87 10 1 4</rect></_></features></cascade>
</opencv_storage>
