<?xml version="1.0"?>
<opencv_storage>
<cascade>
  <stageType>BOOST</stageType>
  <featureType>HAAR</featureType>
  <height>60</height>
  <width>40</width>
  <stageParams>
    <boostType>GAB</boostType>
    <minHitRate>9.9500000476837158e-001</minHitRate>
    <maxFalseAlarm>4.0000000596046448e-001</maxFalseAlarm>
    <weightTrimRate>9.4999999999999996e-001</weightTrimRate>
    <maxDepth>1</maxDepth>
    <maxWeakCount>100</maxWeakCount></stageParams>
  <featureParams>
    <maxCatCount>0</maxCatCount>
    <featSize>1</featSize>
    <mode>ALL</mode></featureParams>
  <stageNum>10</stageNum>
  <stages>
    <!-- stage 0 -->
    <_>
      <maxWeakCount>3</maxWeakCount>
      <stageThreshold>-9.5553404092788696e-001</stageThreshold>
      <weakClassifiers>
        <_>
          <internalNodes>
            0 -1 12 3.4215371124446392e-004</internalNodes>
          <leafValues>
            -9.2277991771697998e-001 8.6274510622024536e-001</leafValues></_>
        <_>
          <internalNodes>
            0 -1 11 -3.4482501447200775e-002</internalNodes>
          <leafValues>
            8.1718826293945313e-001 -8.4174078702926636e-001</leafValues></_>
        <_>
          <internalNodes>
            0 -1 13 3.5341591574251652e-003</internalNodes>
          <leafValues>
            -7.9052406549453735e-001 8.0898672342300415e-001</leafValues></_></weakClassifiers></_>
    <!-- stage 1 -->
    <_>
      <maxWeakCount>5</maxWeakCount>
      <stageThreshold>-1.0149191617965698e+000</stageThreshold>
      <weakClassifiers>
        <_>
          <internalNodes>
            0 -1 7 -9.8463427275419235e-004</internalNodes>
          <leafValues>
            7.1962618827819824e-001 -8.7148594856262207e-001</leafValues></_>
        <_>
          <internalNodes>
            0 -1 34 -9.9616925581358373e-005</internalNodes>
          <leafValues>
            7.0829635858535767e-001 -8.2254052162170410e-001</leafValues></_>
        <_>
          <internalNodes>
            0 -1 18 -7.3258712887763977e-002</internalNodes>
          <leafValues>
            6.6363888978958130e-001 -8.4101003408432007e-001</leafValues></_>
        <_>
          <internalNodes>
            0 -1 15 -1.4431109593715519e-004</internalNodes>
          <leafValues>
            7.0680183172225952e-001 -7.2210049629211426e-001</leafValues></_>
        <_>
          <internalNodes>
            0 -1 25 9.6453726291656494e-003</internalNodes>
          <leafValues>
            -7.4677282571792603e-001 7.3756885528564453e-001</leafValues></_></weakClassifiers></_>
    <!-- stage 2 -->
    <_>
      <maxWeakCount>4</maxWeakCount>
      <stageThreshold>-4.3878149986267090e-001</stageThreshold>
      <weakClassifiers>
        <_>
          <internalNodes>
            0 -1 1 -4.8914160579442978e-002</internalNodes>
          <leafValues>
            7.2093021869659424e-001 -8.7903225421905518e-001</leafValues></_>
        <_>
          <internalNodes>
            0 -1 2 -1.6694644727976993e-005</internalNodes>
          <leafValues>
            4.6518057584762573e-001 -1.</leafValues></_>
        <_>
          <internalNodes>
            0 -1 30 -1.5983626246452332e-002</internalNodes>
          <leafValues>
            7.5255119800567627e-001 -7.1490484476089478e-001</leafValues></_>
        <_>
          <internalNodes>
            0 -1 5 -1.0795443085953593e-003</internalNodes>
          <leafValues>
            7.4333244562149048e-001 -7.7748101949691772e-001</leafValues></_></weakClassifiers></_>
    <!-- stage 3 -->
    <_>
      <maxWeakCount>4</maxWeakCount>
      <stageThreshold>-4.9387794733047485e-001</stageThreshold>
      <weakClassifiers>
        <_>
          <internalNodes>
            0 -1 3 1.0729285422712564e-003</internalNodes>
          <leafValues>
            -7.9389315843582153e-001 7.2139304876327515e-001</leafValues></_>
        <_>
          <internalNodes>
            0 -1 10 -1.2829870684072375e-003</internalNodes>
          <leafValues>
            6.5260863304138184e-001 -8.5951924324035645e-001</leafValues></_>
        <_>
          <internalNodes>
            0 -1 14 1.6106929630041122e-002</internalNodes>
          <leafValues>
            -8.0461698770523071e-001 6.3373613357543945e-001</leafValues></_>
        <_>
          <internalNodes>
            0 -1 19 -6.4856903627514839e-003</internalNodes>
          <leafValues>
            5.2579832077026367e-001 -9.7078478336334229e-001</leafValues></_></weakClassifiers></_>
    <!-- stage 4 -->
    <_>
      <maxWeakCount>4</maxWeakCount>
      <stageThreshold>-3.4820079803466797e-001</stageThreshold>
      <weakClassifiers>
        <_>
          <internalNodes>
            0 -1 31 -1.2106080539524555e-002</internalNodes>
          <leafValues>
            9.7222220897674561e-001 -6.3636362552642822e-001</leafValues></_>
        <_>
          <internalNodes>
            0 -1 17 -1.5532591938972473e-001</internalNodes>
          <leafValues>
            7.7866047620773315e-001 -6.4579230546951294e-001</leafValues></_>
        <_>
          <internalNodes>
            0 -1 26 -3.2270634546875954e-003</internalNodes>
          <leafValues>
            5.9548944234848022e-001 -9.3281376361846924e-001</leafValues></_>
        <_>
          <internalNodes>
            0 -1 24 -3.7018755392637104e-005</internalNodes>
          <leafValues>
            4.4231611490249634e-001 -8.6902105808258057e-001</leafValues></_></weakClassifiers></_>
    <!-- stage 5 -->
    <_>
      <maxWeakCount>3</maxWeakCount>
      <stageThreshold>-7.4418795108795166e-001</stageThreshold>
      <weakClassifiers>
        <_>
          <internalNodes>
            0 -1 32 -1.2833412736654282e-002</internalNodes>
          <leafValues>
            9.1812866926193237e-001 -7.5342464447021484e-001</leafValues></_>
        <_>
          <internalNodes>
            0 -1 8 -1.4377667685039341e-004</internalNodes>
          <leafValues>
            6.3961362838745117e-001 -8.1253761053085327e-001</leafValues></_>
        <_>
          <internalNodes>
            0 -1 22 1.4461513608694077e-002</internalNodes>
          <leafValues>
            -6.2411117553710938e-001 8.2177430391311646e-001</leafValues></_></weakClassifiers></_>
    <!-- stage 6 -->
    <_>
      <maxWeakCount>4</maxWeakCount>
      <stageThreshold>-4.8915132880210876e-001</stageThreshold>
      <weakClassifiers>
        <_>
          <internalNodes>
            0 -1 23 -1.2470124289393425e-002</internalNodes>
          <leafValues>
            5.7258063554763794e-001 -9.5348834991455078e-001</leafValues></_>
        <_>
          <internalNodes>
            0 -1 28 -2.5274397339671850e-003</internalNodes>
          <leafValues>
            9.3812137842178345e-001 -6.3478010892868042e-001</leafValues></_>
        <_>
          <internalNodes>
            0 -1 35 -5.4250931498245336e-006</internalNodes>
          <leafValues>
            6.2413620948791504e-001 -8.3859014511108398e-001</leafValues></_>
        <_>
          <internalNodes>
            0 -1 29 -5.1970018830616027e-006</internalNodes>
          <leafValues>
            4.7498092055320740e-001 -9.3583279848098755e-001</leafValues></_></weakClassifiers></_>
    <!-- stage 7 -->
    <_>
      <maxWeakCount>3</maxWeakCount>
      <stageThreshold>-1.0441516637802124e+000</stageThreshold>
      <weakClassifiers>
        <_>
          <internalNodes>
            0 -1 0 -2.4515556287951767e-004</internalNodes>
          <leafValues>
            -9.5867770910263062e-001 7.6470589637756348e-001</leafValues></_>
        <_>
          <internalNodes>
            0 -1 6 3.0406833957385970e-006</internalNodes>
          <leafValues>
            -8.6441785097122192e-001 6.3347107172012329e-001</leafValues></_>
        <_>
          <internalNodes>
            0 -1 27 1.5625753439962864e-003</internalNodes>
          <leafValues>
            -7.1894508600234985e-001 7.9667973518371582e-001</leafValues></_></weakClassifiers></_>
    <!-- stage 8 -->
    <_>
      <maxWeakCount>3</maxWeakCount>
      <stageThreshold>-6.3743454217910767e-001</stageThreshold>
      <weakClassifiers>
        <_>
          <internalNodes>
            0 -1 33 -6.9384323433041573e-003</internalNodes>
          <leafValues>
            8.3999997377395630e-001 -7.2916668653488159e-001</leafValues></_>
        <_>
          <internalNodes>
            0 -1 20 -1.5226492285728455e-001</internalNodes>
          <leafValues>
            9.2852270603179932e-001 -6.3349819183349609e-001</leafValues></_>
        <_>
          <internalNodes>
            0 -1 9 -2.7402653358876705e-003</internalNodes>
          <leafValues>
            7.2523033618927002e-001 -7.3733693361282349e-001</leafValues></_></weakClassifiers></_>
    <!-- stage 9 -->
    <_>
      <maxWeakCount>3</maxWeakCount>
      <stageThreshold>-9.0503984689712524e-001</stageThreshold>
      <weakClassifiers>
        <_>
          <internalNodes>
            0 -1 21 -1.6757715493440628e-002</internalNodes>
          <leafValues>
            8.4210526943206787e-001 -8.1684982776641846e-001</leafValues></_>
        <_>
          <internalNodes>
            0 -1 4 1.4390787109732628e-003</internalNodes>
          <leafValues>
            -7.4245566129684448e-001 8.5367155075073242e-001</leafValues></_>
        <_>
          <internalNodes>
            0 -1 16 3.9227772504091263e-005</internalNodes>
          <leafValues>
            6.5426564216613770e-001 -9.8361289501190186e-001</leafValues></_></weakClassifiers></_></stages>
  <features>
    <_>
      <rects>
        <_>
          0 0 12 1 -1.</_>
        <_>
          6 0 6 1 2.</_></rects>
      <tilted>0</tilted></_>
    <_>
      <rects>
        <_>
          0 0 39 16 -1.</_>
        <_>
          0 8 39 8 2.</_></rects>
      <tilted>0</tilted></_>
    <_>
      <rects>
        <_>
          0 4 10 1 -1.</_>
        <_>
          5 4 5 1 2.</_></rects>
      <tilted>0</tilted></_>
    <_>
      <rects>
        <_>
          0 23 1 16 -1.</_>
        <_>
          0 27 1 8 2.</_></rects>
      <tilted>0</tilted></_>
    <_>
      <rects>
        <_>
          0 24 1 12 -1.</_>
        <_>
          0 27 1 6 2.</_></rects>
      <tilted>0</tilted></_>
    <_>
      <rects>
        <_>
          0 27 1 12 -1.</_>
        <_>
          0 30 1 6 2.</_></rects>
      <tilted>0</tilted></_>
    <_>
      <rects>
        <_>
          0 31 1 2 -1.</_>
        <_>
          0 32 1 1 2.</_></rects>
      <tilted>0</tilted></_>
    <_>
      <rects>
        <_>
          0 33 4 10 -1.</_>
        <_>
          1 33 2 10 2.</_></rects>
      <tilted>0</tilted></_>
    <_>
      <rects>
        <_>
          0 35 2 1 -1.</_>
        <_>
          1 35 1 1 2.</_></rects>
      <tilted>0</tilted></_>
    <_>
      <rects>
        <_>
          0 36 4 9 -1.</_>
        <_>
          0 39 4 3 3.</_></rects>
      <tilted>0</tilted></_>
    <_>
      <rects>
        <_>
          0 37 7 6 -1.</_>
        <_>
          0 39 7 2 3.</_></rects>
      <tilted>0</tilted></_>
    <_>
      <rects>
        <_>
          1 6 32 14 -1.</_>
        <_>
          9 6 16 14 2.</_></rects>
      <tilted>0</tilted></_>
    <_>
      <rects>
        <_>
          1 37 2 1 -1.</_>
        <_>
          1 37 1 1 2.</_></rects>
      <tilted>1</tilted></_>
    <_>
      <rects>
        <_>
          2 15 2 21 -1.</_>
        <_>
          2 22 2 7 3.</_></rects>
      <tilted>0</tilted></_>
    <_>
      <rects>
        <_>
          3 0 16 2 -1.</_>
        <_>
          3 0 8 2 2.</_></rects>
      <tilted>1</tilted></_>
    <_>
      <rects>
        <_>
          3 36 3 2 -1.</_>
        <_>
          3 37 3 1 2.</_></rects>
      <tilted>0</tilted></_>
    <_>
      <rects>
        <_>
          4 2 2 4 -1.</_>
        <_>
          3 3 2 2 2.</_></rects>
      <tilted>1</tilted></_>
    <_>
      <rects>
        <_>
          4 5 36 26 -1.</_>
        <_>
          16 5 12 26 3.</_></rects>
      <tilted>0</tilted></_>
    <_>
      <rects>
        <_>
          6 4 33 24 -1.</_>
        <_>
          17 4 11 24 3.</_></rects>
      <tilted>0</tilted></_>
    <_>
      <rects>
        <_>
          6 36 34 4 -1.</_>
        <_>
          23 36 17 4 2.</_></rects>
      <tilted>0</tilted></_>
    <_>
      <rects>
        <_>
          7 0 33 31 -1.</_>
        <_>
          18 0 11 31 3.</_></rects>
      <tilted>0</tilted></_>
    <_>
      <rects>
        <_>
          8 1 20 22 -1.</_>
        <_>
          13 1 10 22 2.</_></rects>
      <tilted>0</tilted></_>
    <_>
      <rects>
        <_>
          9 7 16 14 -1.</_>
        <_>
          9 14 16 7 2.</_></rects>
      <tilted>0</tilted></_>
    <_>
      <rects>
        <_>
          12 15 25 12 -1.</_>
        <_>
          12 15 25 6 2.</_></rects>
      <tilted>1</tilted></_>
    <_>
      <rects>
        <_>
          16 1 8 2 -1.</_>
        <_>
          20 1 4 2 2.</_></rects>
      <tilted>0</tilted></_>
    <_>
      <rects>
        <_>
          18 38 6 16 -1.</_>
        <_>
          14 42 6 8 2.</_></rects>
      <tilted>1</tilted></_>
    <_>
      <rects>
        <_>
          23 30 11 30 -1.</_>
        <_>
          23 45 11 15 2.</_></rects>
      <tilted>0</tilted></_>
    <_>
      <rects>
        <_>
          34 16 6 9 -1.</_>
        <_>
          34 19 6 3 3.</_></rects>
      <tilted>0</tilted></_>
    <_>
      <rects>
        <_>
          34 18 6 6 -1.</_>
        <_>
          34 18 3 3 2.</_>
        <_>
          37 21 3 3 2.</_></rects>
      <tilted>0</tilted></_>
    <_>
      <rects>
        <_>
          36 0 4 1 -1.</_>
        <_>
          38 0 2 1 2.</_></rects>
      <tilted>0</tilted></_>
    <_>
      <rects>
        <_>
          39 0 1 54 -1.</_>
        <_>
          39 27 1 27 2.</_></rects>
      <tilted>0</tilted></_>
    <_>
      <rects>
        <_>
          39 1 1 32 -1.</_>
        <_>
          39 17 1 16 2.</_></rects>
      <tilted>0</tilted></_>
    <_>
      <rects>
        <_>
          39 6 1 38 -1.</_>
        <_>
          39 25 1 19 2.</_></rects>
      <tilted>0</tilted></_>
    <_>
      <rects>
        <_>
          39 13 1 42 -1.</_>
        <_>
          39 27 1 14 3.</_></rects>
      <tilted>0</tilted></_>
    <_>
      <rects>
        <_>
          39 32 1 4 -1.</_>
        <_>
          39 33 1 2 2.</_></rects>
      <tilted>0</tilted></_>
    <_>
      <rects>
        <_>
          39 38 1 2 -1.</_>
        <_>
          39 39 1 1 2.</_></rects>
      <tilted>0</tilted></_></features></cascade>
</opencv_storage>
