<?xml version="1.0"?>
<opencv_storage>
<cascade>
  <stageType>BOOST</stageType>
  <featureType>LBP</featureType>
  <height>30</height>
  <width>90</width>
  <stageParams>
    <boostType>GAB</boostType>
    <minHitRate>9.9900001287460327e-001</minHitRate>
    <maxFalseAlarm>4.0000000596046448e-001</maxFalseAlarm>
    <weightTrimRate>9.4999999999999996e-001</weightTrimRate>
    <maxDepth>1</maxDepth>
    <maxWeakCount>100</maxWeakCount></stageParams>
  <featureParams>
    <maxCatCount>256</maxCatCount>
    <featSize>1</featSize></featureParams>
  <stageNum>16</stageNum>
  <stages>
    <!-- stage 0 -->
    <_>
      <maxWeakCount>6</maxWeakCount>
      <stageThreshold>-1.2733181715011597e+000</stageThreshold>
      <weakClassifiers>
        <_>
          <internalNodes>
            0 -1 127 -9928552 -393219 -67698689 -1 -19617044 -16842756
            -1141064966 -266242</internalNodes>
          <leafValues>
            -6.5888977050781250e-001 8.8385200500488281e-001</leafValues></_>
        <_>
          <internalNodes>
            0 -1 61 -1037950726 -316422 -1212269825 2105289470
            -285234946 -1069057 -16781574 -2119490</internalNodes>
          <leafValues>
            -6.1953467130661011e-001 7.8853029012680054e-001</leafValues></_>
        <_>
          <internalNodes>
            0 -1 21 5785045 1061967031 486611447 496373783 311097599
            -1181056850 227162879 681707902</internalNodes>
          <leafValues>
            -7.2716426849365234e-001 6.1456221342086792e-001</leafValues></_>
        <_>
          <internalNodes>
            0 -1 90 -767565053 530316605 -1073790981 -4194305 743411498
            -1433481310 784330570 -78647349</internalNodes>
          <leafValues>
            -5.4557967185974121e-001 7.4399429559707642e-001</leafValues></_>
        <_>
          <internalNodes>
            0 -1 33 -1006595876 -1726476012 -268425643 -6470991
            -389526792 -1129790307 1914881273 -1979148200</internalNodes>
          <leafValues>
            -6.9536262750625610e-001 5.6997621059417725e-001</leafValues></_>
        <_>
          <internalNodes>
            0 -1 79 -225984382 1351237638 1078034832 1359187970
            -749055573 6815752 -1056219126 1129308563</internalNodes>
          <leafValues>
            -6.1579602956771851e-001 6.3148641586303711e-001</leafValues></_></weakClassifiers></_>
    <!-- stage 1 -->
    <_>
      <maxWeakCount>5</maxWeakCount>
      <stageThreshold>-7.9036796092987061e-001</stageThreshold>
      <weakClassifiers>
        <_>
          <internalNodes>
            0 -1 54 146277593 1035486685 1069498367 536546813
            -1094969601 -1073751043 201277439 170395688</internalNodes>
          <leafValues>
            -6.9473683834075928e-001 8.5564053058624268e-001</leafValues></_>
        <_>
          <internalNodes>
            0 -1 49 -604219907 -1008132 -4210689 -6480451 -1074479361
            -1074987012 -1078018577 235408520</internalNodes>
          <leafValues>
            -6.5257346630096436e-001 7.8062099218368530e-001</leafValues></_>
        <_>
          <internalNodes>
            0 -1 31 273879289 -780070759 -1660872227 500651323 813849275
            -1159165566 705850367 188430507</internalNodes>
          <leafValues>
            -7.0393228530883789e-001 6.6240221261978149e-001</leafValues></_>
        <_>
          <internalNodes>
            0 -1 34 273740027 1371832728 1497444701 831258624
            -2003580745 -1113941797 109066671 143311020</internalNodes>
          <leafValues>
            -6.5102642774581909e-001 6.5234547853469849e-001</leafValues></_>
        <_>
          <internalNodes>
            0 -1 13 427228 -1652555748 285541117 69207168 -2013230916
            -6029152 1233176767 184689288</internalNodes>
          <leafValues>
            -7.0846903324127197e-001 5.4556655883789063e-001</leafValues></_></weakClassifiers></_>
    <!-- stage 2 -->
    <_>
      <maxWeakCount>8</maxWeakCount>
      <stageThreshold>-8.2342094182968140e-001</stageThreshold>
      <weakClassifiers>
        <_>
          <internalNodes>
            0 -1 114 -100881220 -131089 -655681 -65538 -1078423832
            -20498 -1082331458 -4195329</internalNodes>
          <leafValues>
            -5.0442475080490112e-001 8.3680468797683716e-001</leafValues></_>
        <_>
          <internalNodes>
            0 -1 69 -91696390 -33683490 2013181951 2065694866 -285545474
            -536871939 -352321858 -290723346</internalNodes>
          <leafValues>
            -5.0640213489532471e-001 7.6989442110061646e-001</leafValues></_>
        <_>
          <internalNodes>
            0 -1 106 321665013 -134928451 -1080049665 -33878531 -82003
            -34766850 -1216954369 -1115016804</internalNodes>
          <leafValues>
            -5.0909119844436646e-001 6.9678539037704468e-001</leafValues></_>
        <_>
          <internalNodes>
            0 -1 8 -572077826 -979597858 1082130888 -314407786
            -335273755 -1078138678 -913030674 -269620065</internalNodes>
          <leafValues>
            -5.9706777334213257e-001 5.6166344881057739e-001</leafValues></_>
        <_>
          <internalNodes>
            0 -1 100 -537998334 49188170 -284430583 -1649423443
            -886091857 -1212284993 -335647829 -85241873</internalNodes>
          <leafValues>
            -5.2802801132202148e-001 5.5236917734146118e-001</leafValues></_>
        <_>
          <internalNodes>
            0 -1 93 868490705 -606391984 -788425281 520990853
            -1144483653 -652705623 -1414424357 -1145565044</internalNodes>
          <leafValues>
            -5.8646726608276367e-001 5.4447954893112183e-001</leafValues></_>
        <_>
          <internalNodes>
            0 -1 138 -271798746 -945144070 -1368987614 -1024802932
            -135822045 70712703 -1793665874 -134219777</internalNodes>
          <leafValues>
            -4.4607111811637878e-001 6.2071478366851807e-001</leafValues></_>
        <_>
          <internalNodes>
            0 -1 15 -757794849 1392573576 -270024713 1304756207
            672224510 -1978632628 1182654463 1531832303</internalNodes>
          <leafValues>
            -4.6613222360610962e-001 6.4278727769851685e-001</leafValues></_></weakClassifiers></_>
    <!-- stage 3 -->
    <_>
      <maxWeakCount>8</maxWeakCount>
      <stageThreshold>-1.0769245624542236e+000</stageThreshold>
      <weakClassifiers>
        <_>
          <internalNodes>
            0 -1 95 1429688336 -4229353 -572564131 -8421549 -537944376
            -513 -847520548 -541368481</internalNodes>
          <leafValues>
            -4.1609194874763489e-001 8.2881313562393188e-001</leafValues></_>
        <_>
          <internalNodes>
            0 -1 135 -570425891 1440053617 -33451 -578813953 -4325635
            2147352060 -8739 -515</internalNodes>
          <leafValues>
            -4.7710132598876953e-001 7.3624712228775024e-001</leafValues></_>
        <_>
          <internalNodes>
            0 -1 2 -464599996 -541085840 1862266863 -4671 -327179868
            -386 -536891997 -2160732</internalNodes>
          <leafValues>
            -5.3453886508941650e-001 5.7523310184478760e-001</leafValues></_>
        <_>
          <internalNodes>
            0 -1 99 -705183233 -671121793 1741627221 1543477231
            -2008383352 -895488039 143132810 -897583089</internalNodes>
          <leafValues>
            -4.0498822927474976e-001 7.2702014446258545e-001</leafValues></_>
        <_>
          <internalNodes>
            0 -1 78 489692412 -1080225388 -1022029347 -547809255
            999844090 -1089568615 -1969170289 230180936</internalNodes>
          <leafValues>
            -7.0732879638671875e-001 4.3207466602325439e-001</leafValues></_>
        <_>
          <internalNodes>
            0 -1 40 1024476664 1496584593 740306393 487659731
            -2113925644 1068236970 173025919 521870267</internalNodes>
          <leafValues>
            -6.3096749782562256e-001 4.2600488662719727e-001</leafValues></_>
        <_>
          <internalNodes>
            0 -1 162 -142345471 -803025656 -1845388288 -1185488304
            -502565853 1896335875 -523594220 -256523357</internalNodes>
          <leafValues>
            -6.2863451242446899e-001 4.3719914555549622e-001</leafValues></_>
        <_>
          <internalNodes>
            0 -1 24 412368373 -36695694 67442077 -1659285163 -2111296007
            -72318823 -880787731 -1475053044</internalNodes>
          <leafValues>
            -5.5367463827133179e-001 5.2635073661804199e-001</leafValues></_></weakClassifiers></_>
    <!-- stage 4 -->
    <_>
      <maxWeakCount>9</maxWeakCount>
      <stageThreshold>-5.5924665927886963e-001</stageThreshold>
      <weakClassifiers>
        <_>
          <internalNodes>
            0 -1 22 -44515332 -542110212 -524289 -212996 -545735236
            -4710928 -81921 -1346893688</internalNodes>
          <leafValues>
            -4.5164152979850769e-001 7.8556114435195923e-001</leafValues></_>
        <_>
          <internalNodes>
            0 -1 86 1549786901 1600100255 -134217901 -163 -807407729
            -589299763 -540155953 -536870945</internalNodes>
          <leafValues>
            -4.2467284202575684e-001 7.2863399982452393e-001</leafValues></_>
        <_>
          <internalNodes>
            0 -1 68 -134746120 -579568516 2075930544 903724980 930626728
            60587832 1954327020 -65</internalNodes>
          <leafValues>
            -5.2543699741363525e-001 6.3334953784942627e-001</leafValues></_>
        <_>
          <internalNodes>
            0 -1 16 830477777 -139128491 -587112449 2005733823 990145422
            -1147465565 142678431 455018715</internalNodes>
          <leafValues>
            -6.1290848255157471e-001 5.0023484230041504e-001</leafValues></_>
        <_>
          <internalNodes>
            0 -1 80 -571481718 1086687441 -2092367872 10705038
            1250132103 8393098 1636287114 1643111135</internalNodes>
          <leafValues>
            -5.7786393165588379e-001 5.3555834293365479e-001</leafValues></_>
        <_>
          <internalNodes>
            0 -1 23 2031270321 -572239396 -184493089 -10497193
            -2104842499 -612326968 1944738299 800590108</internalNodes>
          <leafValues>
            -6.5271520614624023e-001 4.3060061335563660e-001</leafValues></_>
        <_>
          <internalNodes>
            0 -1 142 -336345566 -2106676702 -1372688896 -1555054802
            2122177542 92790547 -145574121 -135545089</internalNodes>
          <leafValues>
            -5.2940446138381958e-001 5.6688654422760010e-001</leafValues></_>
        <_>
          <internalNodes>
            0 -1 20 714102741 -2053308322 -171792705 -2851939 -890455878
            -1156017009 -192698113 -1078443892</internalNodes>
          <leafValues>
            -5.7503885030746460e-001 5.0645732879638672e-001</leafValues></_>
        <_>
          <internalNodes>
            0 -1 55 -499924350 34631691 184721438 -116735925 -1052654982
            1678396418 -2077564733 1074785127</internalNodes>
          <leafValues>
            -5.8799886703491211e-001 5.1248025894165039e-001</leafValues></_></weakClassifiers></_>
    <!-- stage 5 -->
    <_>
      <maxWeakCount>10</maxWeakCount>
      <stageThreshold>-8.6625504493713379e-001</stageThreshold>
      <weakClassifiers>
        <_>
          <internalNodes>
            0 -1 65 -93878054 -536904785 1493165567 -1845543237 -26145
            -20481 -335568129 -1286</internalNodes>
          <leafValues>
            -2.3709993064403534e-001 8.3074080944061279e-001</leafValues></_>
        <_>
          <internalNodes>
            0 -1 137 -41945259 -704782465 -33487 -37896197 -25127
            -578814627 -33567335 -301989893</internalNodes>
          <leafValues>
            -3.6982554197311401e-001 7.1152943372726440e-001</leafValues></_>
        <_>
          <internalNodes>
            0 -1 45 277108957 -705791301 2147123071 536436731
            -1942966370 -1090626601 -1443054145 951586409</internalNodes>
          <leafValues>
            -4.7615498304367065e-001 5.1245081424713135e-001</leafValues></_>
        <_>
          <internalNodes>
            0 -1 122 -734015601 -1816166529 -1025 -101028883 -2060513654
            -33853745 -1031108982 -489754897</internalNodes>
          <leafValues>
            -4.2504355311393738e-001 5.8773368597030640e-001</leafValues></_>
        <_>
          <internalNodes>
            0 -1 4 -463503186 -581578089 -971798642 2038678298
            1090778688 -608978295 -509358421 -339740650</internalNodes>
          <leafValues>
            -4.7540751099586487e-001 5.0089102983474731e-001</leafValues></_>
        <_>
          <internalNodes>
            0 -1 118 498865649 -49262507 -250491495 1503613786
            -1725242695 -1466384241 -931101731 -1153957668</internalNodes>
          <leafValues>
            -5.3110402822494507e-001 4.3301862478256226e-001</leafValues></_>
        <_>
          <internalNodes>
            0 -1 158 -278142326 1411444282 133441312 531722093 930455940
            993049072 51684824 -1073741825</internalNodes>
          <leafValues>
            -4.6443268656730652e-001 5.1332145929336548e-001</leafValues></_>
        <_>
          <internalNodes>
            0 -1 29 -673328248 -216120317 293864584 898842646 1074354570
            805589123 -1551823734 2003022491</internalNodes>
          <leafValues>
            -5.3535312414169312e-001 4.3966779112815857e-001</leafValues></_>
        <_>
          <internalNodes>
            0 -1 37 934830589 -1185267371 -1722691659 962269466
            -1983883074 -341079869 -1988060940 999832528</internalNodes>
          <leafValues>
            -6.5701258182525635e-001 3.4605157375335693e-001</leafValues></_>
        <_>
          <internalNodes>
            0 -1 128 -212339816 470368392 1125716241 1931150219
            -1475351247 -1459066615 -382742248 -1649995291</internalNodes>
          <leafValues>
            -6.2304049730300903e-001 3.6864599585533142e-001</leafValues></_></weakClassifiers></_>
    <!-- stage 6 -->
    <_>
      <maxWeakCount>12</maxWeakCount>
      <stageThreshold>-1.0357748270034790e+000</stageThreshold>
      <weakClassifiers>
        <_>
          <internalNodes>
            0 -1 66 -554775846 -537368834 2138504954 1431306362
            -68160516 -5261313 -1359023620 -557267218</internalNodes>
          <leafValues>
            -3.3496332168579102e-001 7.8081524372100830e-001</leafValues></_>
        <_>
          <internalNodes>
            0 -1 126 1429687647 -545300617 2147475455 -2130081
            1996480511 -131073 2144841726 2069056863</internalNodes>
          <leafValues>
            -5.1722097396850586e-001 5.7688814401626587e-001</leafValues></_>
        <_>
          <internalNodes>
            0 -1 147 -3 339738559 -41943623 368573407 -4643 -10486305
            -1073787427 -1124082209</internalNodes>
          <leafValues>
            -4.1353353857994080e-001 5.7850754261016846e-001</leafValues></_>
        <_>
          <internalNodes>
            0 -1 52 892340432 523505305 732442519 -109087051 -48754978
            -1079136329 -1717555317 -1632473189</internalNodes>
          <leafValues>
            -4.2099100351333618e-001 5.6877464056015015e-001</leafValues></_>
        <_>
          <internalNodes>
            0 -1 67 -424951646 -795881442 295042 -750829241 1111525770
            8423177 1375952904 1382010847</internalNodes>
          <leafValues>
            -5.2564334869384766e-001 4.5131814479827881e-001</leafValues></_>
        <_>
          <internalNodes>
            0 -1 88 101981563 -664860705 -1861198375 -15576617
            -1451173159 -1198464794 -1549693989 496503977</internalNodes>
          <leafValues>
            -6.8245482444763184e-001 3.3081361651420593e-001</leafValues></_>
        <_>
          <internalNodes>
            0 -1 141 -456399070 -1603403387 -989806332 1619784196
            1912754227 8519808 -1062488858 -139471121</internalNodes>
          <leafValues>
            -5.1922047138214111e-001 4.6005982160568237e-001</leafValues></_>
        <_>
          <internalNodes>
            0 -1 19 -1408755620 -1108242304 1410340187 -1218953192
            2084612284 -1186821902 -133637953 -1472718820</internalNodes>
          <leafValues>
            -5.3188478946685791e-001 4.3557661771774292e-001</leafValues></_>
        <_>
          <internalNodes>
            0 -1 62 807465695 1929892368 1381061379 287748559
            -1690715452 -349880132 1770752107 -85290105</internalNodes>
          <leafValues>
            -5.0428718328475952e-001 4.4128996133804321e-001</leafValues></_>
        <_>
          <internalNodes>
            0 -1 42 -631244662 1359151376 -2113928054 -471608701
            134295566 286916992 -1802406261 862411263</internalNodes>
          <leafValues>
            -5.2747464179992676e-001 4.3868419528007507e-001</leafValues></_>
        <_>
          <internalNodes>
            0 -1 36 -1512022819 424165460 1879137023 -1115944563
            -96454405 -6346592 -350158595 -1703408164</internalNodes>
          <leafValues>
            -4.9176058173179626e-001 4.5471060276031494e-001</leafValues></_>
        <_>
          <internalNodes>
            0 -1 143 -227287275 859799331 -343965769 -1078460425 -65
            -1153433665 -1078526106 -1985282120</internalNodes>
          <leafValues>
            -4.1307154297828674e-001 5.2807259559631348e-001</leafValues></_></weakClassifiers></_>
    <!-- stage 7 -->
    <_>
      <maxWeakCount>11</maxWeakCount>
      <stageThreshold>-7.8609687089920044e-001</stageThreshold>
      <weakClassifiers>
        <_>
          <internalNodes>
            0 -1 103 -812675576 -1810072500 -1413727488 -578964167
            -75649316 -1617018881 -1073750023 -67125313</internalNodes>
          <leafValues>
            -3.5115206241607666e-001 7.4758195877075195e-001</leafValues></_>
        <_>
          <internalNodes>
            0 -1 70 -78122242 -67109169 -2064104198 -757626318 -2593
            -268468233 1693387982 -73401682</internalNodes>
          <leafValues>
            -4.6782937645912170e-001 5.9563136100769043e-001</leafValues></_>
        <_>
          <internalNodes>
            0 -1 105 508418 -145636413 -1056848845 -966819677
            -1063268965 -402620405 -230432322 -456658261</internalNodes>
          <leafValues>
            -4.7649767994880676e-001 5.1106917858123779e-001</leafValues></_>
        <_>
          <internalNodes>
            0 -1 1 -824784190 -557393914 -535506453 -417824747
            1212384172 -1080016486 -926047073 -452986602</internalNodes>
          <leafValues>
            -4.7527420520782471e-001 4.8673328757286072e-001</leafValues></_>
        <_>
          <internalNodes>
            0 -1 131 621810929 -644628183 -1877895177 2031030351
            -124925255 -1163263333 -1993323587 -1616900760</internalNodes>
          <leafValues>
            -4.8022136092185974e-001 4.7710853815078735e-001</leafValues></_>
        <_>
          <internalNodes>
            0 -1 149 -961560063 100748487 -2146795260 572665216
            -1836507096 1118507040 -2096487918 -136319781</internalNodes>
          <leafValues>
            -5.0948172807693481e-001 4.2761898040771484e-001</leafValues></_>
        <_>
          <internalNodes>
            0 -1 32 -1073706792 -1760518055 -2121727011 534315285
            -1164835682 1058832552 -1825956929 -1892773122</internalNodes>
          <leafValues>
            -5.0840973854064941e-001 4.4559231400489807e-001</leafValues></_>
        <_>
          <internalNodes>
            0 -1 153 -1706050767 15779715 285987008 1507922065
            -904968608 260980999 -1064596895 -637959831</internalNodes>
          <leafValues>
            -5.9211957454681396e-001 3.7470647692680359e-001</leafValues></_>
        <_>
          <internalNodes>
            0 -1 46 -5250014 -1591172862 1077936298 1905487883 -65871445
            557184 202629194 1372573443</internalNodes>
          <leafValues>
            -5.5139619112014771e-001 4.4725611805915833e-001</leafValues></_>
        <_>
          <internalNodes>
            0 -1 120 1099044650 1460748294 -1725919102 -409225981
            2022432942 1778630659 -1833969910 1145562114</internalNodes>
          <leafValues>
            -6.1494940519332886e-001 3.6224901676177979e-001</leafValues></_>
        <_>
          <internalNodes>
            0 -1 117 1060538764 -584371816 -1538751096 -1919872610
            -1426011349 -1156833279 1929611419 -607467947</internalNodes>
          <leafValues>
            -5.5368053913116455e-001 4.0277934074401855e-001</leafValues></_></weakClassifiers></_>
    <!-- stage 8 -->
    <_>
      <maxWeakCount>12</maxWeakCount>
      <stageThreshold>-8.9026790857315063e-001</stageThreshold>
      <weakClassifiers>
        <_>
          <internalNodes>
            0 -1 56 -104874326 -134349105 351273208 -1111523609 -4218884
            -1342177281 -823159858 -84956421</internalNodes>
          <leafValues>
            -3.0221131443977356e-001 7.6943701505661011e-001</leafValues></_>
        <_>
          <internalNodes>
            0 -1 82 -13828114 863296252 2112403420 -1611341828 -14876948
            447511548 -1108034632 -1025</internalNodes>
          <leafValues>
            -4.5732998847961426e-001 5.7629114389419556e-001</leafValues></_>
        <_>
          <internalNodes>
            0 -1 38 419434901 -8577295 -1208238593 -33986155 -1128743496
            -1107315841 -1192184917 -1644683917</internalNodes>
          <leafValues>
            -4.1672462224960327e-001 5.8981114625930786e-001</leafValues></_>
        <_>
          <internalNodes>
            0 -1 3 1323746854 -597829487 -937372689 -776158206
            -360316766 -251510524 1879437807 -3158972</internalNodes>
          <leafValues>
            -5.7757586240768433e-001 4.3428823351860046e-001</leafValues></_>
        <_>
          <internalNodes>
            0 -1 111 989506294 827827070 -2097151432 -1627881131
            2072232847 -1461483389 -1648096581 -1077941477</internalNodes>
          <leafValues>
            -5.2714723348617554e-001 4.5288047194480896e-001</leafValues></_>
        <_>
          <internalNodes>
            0 -1 72 -641542689 -585642 972977339 1409729536 -17039713
            -805879464 -157811073 -74719061</internalNodes>
          <leafValues>
            -3.6802944540977478e-001 6.3002848625183105e-001</leafValues></_>
        <_>
          <internalNodes>
            0 -1 159 -887621855 6799363 -603208944 -1339816831 682541333
            281759875 -929895840 -174722868</internalNodes>
          <leafValues>
            -6.2444049119949341e-001 3.7049761414527893e-001</leafValues></_>
        <_>
          <internalNodes>
            0 -1 60 483531825 951668760 1413601751 534004249 -1266132583
            -106396542 -1205718341 -1440084376</internalNodes>
          <leafValues>
            -5.0582832098007202e-001 4.3602529168128967e-001</leafValues></_>
        <_>
          <internalNodes>
            0 -1 85 -104348926 -1693912955 67109128 1125937819
            1147175365 12847658 1996592040 1858797054</internalNodes>
          <leafValues>
            -5.3988867998123169e-001 4.2445716261863708e-001</leafValues></_>
        <_>
          <internalNodes>
            0 -1 110 -341316306 2043105347 537121186 -645678910
            827359783 1121912842 1659233994 -1043860982</internalNodes>
          <leafValues>
            -4.4182729721069336e-001 4.7681370377540588e-001</leafValues></_>
        <_>
          <internalNodes>
            0 -1 87 336596025 -1651437295 -2129556653 1003325685
            967444984 -342195543 705313455 -1147797272</internalNodes>
          <leafValues>
            -4.4790816307067871e-001 5.1906329393386841e-001</leafValues></_>
        <_>
          <internalNodes>
            0 -1 119 -775027556 -209611853 1392861470 -1115574140
            -1140651283 -1367111670 968716 1381105036</internalNodes>
          <leafValues>
            -6.0255825519561768e-001 4.0059873461723328e-001</leafValues></_></weakClassifiers></_>
    <!-- stage 9 -->
    <_>
      <maxWeakCount>10</maxWeakCount>
      <stageThreshold>-9.2878568172454834e-001</stageThreshold>
      <weakClassifiers>
        <_>
          <internalNodes>
            0 -1 136 -849521284 1954364789 -82051 2013076925 -1780531716
            2105441756 -1073743939 -1644175880</internalNodes>
          <leafValues>
            -3.9672130346298218e-001 7.1467453241348267e-001</leafValues></_>
        <_>
          <internalNodes>
            0 -1 102 -88092580 -570425865 -1191322499 -1115947137
            -1116762696 -19 -119963492 -1895829837</internalNodes>
          <leafValues>
            -4.6328791975975037e-001 5.9120374917984009e-001</leafValues></_>
        <_>
          <internalNodes>
            0 -1 5 -118586382 -183083246 1610777054 -447552742 633750756
            -1792409078 1627607497 -17110065</internalNodes>
          <leafValues>
            -5.9551346302032471e-001 4.4749954342842102e-001</leafValues></_>
        <_>
          <internalNodes>
            0 -1 104 -201347090 1825873592 805058680 833929200
            1035778044 529858556 2113187702 -16385</internalNodes>
          <leafValues>
            -4.8068448901176453e-001 5.0042688846588135e-001</leafValues></_>
        <_>
          <internalNodes>
            0 -1 83 496503253 -584222472 -1191127667 -552533667
            -1449205508 -1161262953 -1369917000 -1079766276</internalNodes>
          <leafValues>
            -5.7568138837814331e-001 4.4124820828437805e-001</leafValues></_>
        <_>
          <internalNodes>
            0 -1 17 1375205075 1460740098 1225723021 1465737305
            643500467 -123592664 1080025243 521140383</internalNodes>
          <leafValues>
            -5.1534539461135864e-001 4.8872643709182739e-001</leafValues></_>
        <_>
          <internalNodes>
            0 -1 146 -539501773 -683688029 -1073774729 -1418330121
            -29900866 -1153433833 -67129665 -1967147213</internalNodes>
          <leafValues>
            -3.8981425762176514e-001 6.1006641387939453e-001</leafValues></_>
        <_>
          <internalNodes>
            0 -1 92 -539840614 253792411 1133650052 117998351 208765876
            184877440 1099506604 2079297199</internalNodes>
          <leafValues>
            -5.6458294391632080e-001 4.2530173063278198e-001</leafValues></_>
        <_>
          <internalNodes>
            0 -1 97 -284456227 639320082 -1690067105 -134078189
            -1952216692 -284489029 8947848 159023819</internalNodes>
          <leafValues>
            -4.9752458930015564e-001 4.8438623547554016e-001</leafValues></_>
        <_>
          <internalNodes>
            0 -1 53 404233725 -1852046308 432232349 -1919412776
            138528505 -1180939959 -1186985249 -1365761704</internalNodes>
          <leafValues>
            -5.4109114408493042e-001 4.6554172039031982e-001</leafValues></_></weakClassifiers></_>
    <!-- stage 10 -->
    <_>
      <maxWeakCount>11</maxWeakCount>
      <stageThreshold>-6.4817601442337036e-001</stageThreshold>
      <weakClassifiers>
        <_>
          <internalNodes>
            0 -1 112 -460356 1905589820 502041316 1977393116 1365040636
            1565816820 1599889388 -5242881</internalNodes>
          <leafValues>
            -2.1330089867115021e-001 7.4578344821929932e-001</leafValues></_>
        <_>
          <internalNodes>
            0 -1 75 -823210374 -344897 -67272705 -539847339 -1050689 -1
            -1078214945 -70627345</internalNodes>
          <leafValues>
            -4.2107325792312622e-001 5.9420603513717651e-001</leafValues></_>
        <_>
          <internalNodes>
            0 -1 125 -245370539 -638850991 143245533 -212099015
            -671039238 -121305976 -1597249413 828887894</internalNodes>
          <leafValues>
            -4.6565333008766174e-001 5.0597518682479858e-001</leafValues></_>
        <_>
          <internalNodes>
            0 -1 76 -136317278 1235152984 58982404 1941504180 1245885099
            134221829 5161947 1342168287</internalNodes>
          <leafValues>
            -4.9704068899154663e-001 4.5649340748786926e-001</leafValues></_>
        <_>
          <internalNodes>
            0 -1 89 136446297 1871729040 -799941123 -541105578
            -1312730202 -595476317 -1736320833 -1650194734</internalNodes>
          <leafValues>
            -5.6310284137725830e-001 4.1818779706954956e-001</leafValues></_>
        <_>
          <internalNodes>
            0 -1 10 1791806590 -590560049 1614556 -886046130 268439383
            -219937783 -1891038977 2135036911</internalNodes>
          <leafValues>
            -6.3282740116119385e-001 3.2704287767410278e-001</leafValues></_>
        <_>
          <internalNodes>
            0 -1 134 -496505850 -460654266 -2147448256 -526564728
            822575903 537919521 859982659 -479990825</internalNodes>
          <leafValues>
            -4.4066435098648071e-001 5.0570368766784668e-001</leafValues></_>
        <_>
          <internalNodes>
            0 -1 25 -1143186439 -700301161 352423871 1058821011
            -1131837767 -8236904 -2013214531 -1170728664</internalNodes>
          <leafValues>
            -4.5776468515396118e-001 4.8273915052413940e-001</leafValues></_>
        <_>
          <internalNodes>
            0 -1 59 1292897784 -1726762532 1536445709 2132607385 2131384
            -609607488 1535941566 243797384</internalNodes>
          <leafValues>
            -6.8758320808410645e-001 3.2627576589584351e-001</leafValues></_>
        <_>
          <internalNodes>
            0 -1 164 1441507594 1125091539 1084325938 1401668039
            1628042474 2059436034 1623846631 1134029803</internalNodes>
          <leafValues>
            -5.7299804687500000e-001 4.2843902111053467e-001</leafValues></_>
        <_>
          <internalNodes>
            0 -1 30 -1614800419 -170651431 -1744654113 223107080
            -511149840 -1473312624 1208100541 -1919287280</internalNodes>
          <leafValues>
            -4.9673417210578918e-001 4.3051528930664063e-001</leafValues></_></weakClassifiers></_>
    <!-- stage 11 -->
    <_>
      <maxWeakCount>13</maxWeakCount>
      <stageThreshold>-1.3737033605575562e+000</stageThreshold>
      <weakClassifiers>
        <_>
          <internalNodes>
            0 -1 107 1560628249 1608458207 1610571775 -10665985
            -297918506 -2129921 201285242 1598770781</internalNodes>
          <leafValues>
            -4.1792783141136169e-001 7.0481520891189575e-001</leafValues></_>
        <_>
          <internalNodes>
            0 -1 109 -37772886 -268714692 1051697138 -1342717955
            -349458678 -282153056 690924202 -71573585</internalNodes>
          <leafValues>
            -4.4076064229011536e-001 5.2937918901443481e-001</leafValues></_>
        <_>
          <internalNodes>
            0 -1 50 -1879043876 -540528235 319017431 -2120773367
            -1333728537 -1176403835 -1297884933 -2002122729</internalNodes>
          <leafValues>
            -4.8416796326637268e-001 4.7192680835723877e-001</leafValues></_>
        <_>
          <internalNodes>
            0 -1 156 -68434526 -207457630 757112848 1293039298
            -1994112866 236989488 360011230 -2821</internalNodes>
          <leafValues>
            -4.2184501886367798e-001 5.0633203983306885e-001</leafValues></_>
        <_>
          <internalNodes>
            0 -1 48 489161776 524091555 -1442639051 1058904357
            1394623114 -1891104595 705594543 252318170</internalNodes>
          <leafValues>
            -5.1236832141876221e-001 4.0275433659553528e-001</leafValues></_>
        <_>
          <internalNodes>
            0 -1 163 -639904909 357008403 -1064249343 -846061213
            277588115 -1458929653 -240619484 -1587314381</internalNodes>
          <leafValues>
            -4.7615686058998108e-001 4.2955157160758972e-001</leafValues></_>
        <_>
          <internalNodes>
            0 -1 152 -749487446 822501441 -2146957312 -1759813559
            1888436651 1208615435 1895836665 1006295231</internalNodes>
          <leafValues>
            -4.8348790407180786e-001 4.3457484245300293e-001</leafValues></_>
        <_>
          <internalNodes>
            0 -1 151 103623901 -1187530884 -1073864899 -346530314
            -1515096114 -1175134212 485127609 -1665908524</internalNodes>
          <leafValues>
            -4.3227440118789673e-001 4.5122200250625610e-001</leafValues></_>
        <_>
          <internalNodes>
            0 -1 6 -296491030 -631846595 -1542324088 -834502302
            570769410 709838979 541229232 -15998497</internalNodes>
          <leafValues>
            -4.9930429458618164e-001 4.0440487861633301e-001</leafValues></_>
        <_>
          <internalNodes>
            0 -1 47 -1553990758 101879838 8388726 274356680 -628274697
            -1820294912 713378168 290187387</internalNodes>
          <leafValues>
            -6.2451958656311035e-001 3.2754579186439514e-001</leafValues></_>
        <_>
          <internalNodes>
            0 -1 58 -370171354 -751759104 1628374056 1233470510
            587903170 138412694 33800834 1393295310</internalNodes>
          <leafValues>
            -5.3240692615509033e-001 3.7868410348892212e-001</leafValues></_>
        <_>
          <internalNodes>
            0 -1 63 88104117 -379758233 1158878195 -1617882921
            -1988071018 -271415104 709426100 -1147626992</internalNodes>
          <leafValues>
            -4.8720020055770874e-001 4.3166291713714600e-001</leafValues></_>
        <_>
          <internalNodes>
            0 -1 133 -970227702 124567470 1726849540 -358170632
            1852786068 1174304598 -612495712 -201616897</internalNodes>
          <leafValues>
            -4.2537203431129456e-001 4.7815340757369995e-001</leafValues></_></weakClassifiers></_>
    <!-- stage 12 -->
    <_>
      <maxWeakCount>12</maxWeakCount>
      <stageThreshold>-5.3018212318420410e-001</stageThreshold>
      <weakClassifiers>
        <_>
          <internalNodes>
            0 -1 18 29815 1426161509 -422051842 2131591039 51961659
            -488641025 1525596159 1359271775</internalNodes>
          <leafValues>
            -4.5013478398323059e-001 6.8136185407638550e-001</leafValues></_>
        <_>
          <internalNodes>
            0 -1 96 -543207083 -77595281 -138553911 -25199265 -276854632
            -1073742337 -1945597560 -3146801</internalNodes>
          <leafValues>
            -4.1324922442436218e-001 5.3815639019012451e-001</leafValues></_>
        <_>
          <internalNodes>
            0 -1 9 -497620274 -488765858 21242111 -1534973991 2047011381
            1713866115 -108574229 -14158113</internalNodes>
          <leafValues>
            -5.0626373291015625e-001 4.3160733580589294e-001</leafValues></_>
        <_>
          <internalNodes>
            0 -1 73 218108052 -1153586984 406929823 -606783475 591927434
            -1672965958 -1416734017 -1348861304</internalNodes>
          <leafValues>
            -4.6882590651512146e-001 4.4786629080772400e-001</leafValues></_>
        <_>
          <internalNodes>
            0 -1 77 -250090770 1398755466 -1023196984 1342291968
            -1063933817 145229642 -662648111 1367857803</internalNodes>
          <leafValues>
            -5.2629178762435913e-001 4.0296766161918640e-001</leafValues></_>
        <_>
          <internalNodes>
            0 -1 155 -105909427 218530713 210476177 1664553497
            1073892029 1779077643 147524809 1033886501</internalNodes>
          <leafValues>
            -5.6374979019165039e-001 3.6909449100494385e-001</leafValues></_>
        <_>
          <internalNodes>
            0 -1 39 -711724647 151289876 126864217 387578670 1075772828
            320531208 1530379183 -1174750369</internalNodes>
          <leafValues>
            -4.3097323179244995e-001 4.9899140000343323e-001</leafValues></_>
        <_>
          <internalNodes>
            0 -1 71 -136863160 1363267658 -805279742 1405132842
            1262657568 524296 1090536843 1382541791</internalNodes>
          <leafValues>
            -5.9789335727691650e-001 3.5176748037338257e-001</leafValues></_>
        <_>
          <internalNodes>
            0 -1 113 943719863 -70117931 -2012949003 454762711
            -1190153091 -15774547 -1862096641 -1120271300</internalNodes>
          <leafValues>
            -5.7821726799011230e-001 3.5710239410400391e-001</leafValues></_>
        <_>
          <internalNodes>
            0 -1 148 -477109492 984384130 83890688 1269538842 721580459
            201588874 858432393 -222306629</internalNodes>
          <leafValues>
            -4.7595170140266418e-001 4.1722476482391357e-001</leafValues></_>
        <_>
          <internalNodes>
            0 -1 35 1901074737 -1279458724 2044794525 389484801
            198752984 -1146990453 -1978773253 479864832</internalNodes>
          <leafValues>
            -4.6331617236137390e-001 4.5844757556915283e-001</leafValues></_>
        <_>
          <internalNodes>
            0 -1 140 25170097 -1244393216 -1333440771 -1789836979
            1246570557 -356513624 178433023 144197636</internalNodes>
          <leafValues>
            -5.7778900861740112e-001 3.3668768405914307e-001</leafValues></_></weakClassifiers></_>
    <!-- stage 13 -->
    <_>
      <maxWeakCount>13</maxWeakCount>
      <stageThreshold>-1.2055069208145142e+000</stageThreshold>
      <weakClassifiers>
        <_>
          <internalNodes>
            0 -1 98 -546326577 429907827 -7 1742663679 64957706
            145424330 -273695217 -839387153</internalNodes>
          <leafValues>
            -4.5927740633487701e-002 7.7567052841186523e-001</leafValues></_>
        <_>
          <internalNodes>
            0 -1 124 1527729501 -539001345 -639771653 -675414177
            -268440948 -536870913 -183107892 -33851057</internalNodes>
          <leafValues>
            -4.0015232563018799e-001 5.0981855392456055e-001</leafValues></_>
        <_>
          <internalNodes>
            0 -1 11 -1576854584 -1827630713 335613982 -1244200801
            -1824292114 -1862234727 -1848834625 -1288992534</internalNodes>
          <leafValues>
            -4.7611322999000549e-001 4.3692144751548767e-001</leafValues></_>
        <_>
          <internalNodes>
            0 -1 26 1364586751 352321682 362250368 1531297858 1839147183
            -83754818 227248259 537558667</internalNodes>
          <leafValues>
            -4.8479816317558289e-001 4.1459843516349792e-001</leafValues></_>
        <_>
          <internalNodes>
            0 -1 51 -9706462 -920158016 -1710997495 1997221962
            -658394976 180101121 604176595 1571804155</internalNodes>
          <leafValues>
            -4.6007078886032104e-001 3.8901367783546448e-001</leafValues></_>
        <_>
          <internalNodes>
            0 -1 165 -1544042185 1120914572 310825528 -637366101
            2055398499 1954867329 -989738608 -1596676220</internalNodes>
          <leafValues>
            -4.3304309248924255e-001 4.0540787577629089e-001</leafValues></_>
        <_>
          <internalNodes>
            0 -1 132 1968029565 1498741259 537567331 1090626115
            -905273154 -962394104 16976558 -1383495544</internalNodes>
          <leafValues>
            -4.5779284834861755e-001 3.8899222016334534e-001</leafValues></_>
        <_>
          <internalNodes>
            0 -1 44 -111157177 822090056 268554591 1396769306 1210772023
            -1155268402 -500981368 150731615</internalNodes>
          <leafValues>
            -4.3999865651130676e-001 4.1085860133171082e-001</leafValues></_>
        <_>
          <internalNodes>
            0 -1 161 437542621 1606363377 -388171307 -696632075
            -1084209189 -1628030982 -615874641 -1078326911</internalNodes>
          <leafValues>
            -3.2845419645309448e-001 5.4724168777465820e-001</leafValues></_>
        <_>
          <internalNodes>
            0 -1 157 -1008213854 1441333698 -2071322618 1497608494
            1342234758 8781858 1192185990 -1006699778</internalNodes>
          <leafValues>
            -4.3993750214576721e-001 4.3535211682319641e-001</leafValues></_>
        <_>
          <internalNodes>
            0 -1 12 -859315474 -96419465 1145061376 1619189766
            1359081795 -1658673151 1510236637 -595370585</internalNodes>
          <leafValues>
            -5.4618352651596069e-001 3.4910041093826294e-001</leafValues></_>
        <_>
          <internalNodes>
            0 -1 121 -96731043 -887984027 347111066 -771751919
            -536114519 -1911496037 -2138079096 1156321490</internalNodes>
          <leafValues>
            -5.1696473360061646e-001 3.7716791033744812e-001</leafValues></_>
        <_>
          <internalNodes>
            0 -1 145 948461433 496558296 -1459563105 -611920491
            545808891 -1566996095 562059517 260573681</internalNodes>
          <leafValues>
            -5.8907788991928101e-001 3.2741707563400269e-001</leafValues></_></weakClassifiers></_>
    <!-- stage 14 -->
    <_>
      <maxWeakCount>14</maxWeakCount>
      <stageThreshold>-6.6367238759994507e-001</stageThreshold>
      <weakClassifiers>
        <_>
          <internalNodes>
            0 -1 74 -9647398 -34671634 1029111550 527434370 -1051657
            -26214402 -822348588 -647740310</internalNodes>
          <leafValues>
            -2.5543478131294250e-001 7.2748816013336182e-001</leafValues></_>
        <_>
          <internalNodes>
            0 -1 150 2098718481 1562342895 -37849839 -105546374
            -413145671 -1107984529 -33555139 -61344353</internalNodes>
          <leafValues>
            -3.5719692707061768e-001 5.8360606431961060e-001</leafValues></_>
        <_>
          <internalNodes>
            0 -1 7 -336092225 -1907384090 -1696605185 -868226402
            1929295831 60269147 2004858269 -1999654721</internalNodes>
          <leafValues>
            -3.6484062671661377e-001 5.1850336790084839e-001</leafValues></_>
        <_>
          <internalNodes>
            0 -1 28 1211473151 1429454261 -1727787265 1966140889
            685627669 -4988930 179100077 2080432015</internalNodes>
          <leafValues>
            -3.8184136152267456e-001 4.9568313360214233e-001</leafValues></_>
        <_>
          <internalNodes>
            0 -1 129 2064476957 -530059101 1082163591 1371574291
            -1168439798 -387030846 -339508288 -7668551</internalNodes>
          <leafValues>
            -4.4954472780227661e-001 4.1682296991348267e-001</leafValues></_>
        <_>
          <internalNodes>
            0 -1 108 474618357 -582893102 -1050359619 -684625897
            -75236616 -788495351 -787961157 -1433655779</internalNodes>
          <leafValues>
            -5.1524740457534790e-001 3.6329302191734314e-001</leafValues></_>
        <_>
          <internalNodes>
            0 -1 139 -1056141 1082440442 58844448 -312216814 643021653
            402924132 1298196198 -58785797</internalNodes>
          <leafValues>
            -3.5673600435256958e-001 5.4453414678573608e-001</leafValues></_>
        <_>
          <internalNodes>
            0 -1 115 -41720323 2134769567 -272753189 -1925238786
            -1948416792 -1361056258 211582988 -1839763169</internalNodes>
          <leafValues>
            -3.8879653811454773e-001 4.7418159246444702e-001</leafValues></_>
        <_>
          <internalNodes>
            0 -1 144 1450440497 1001029429 -1073774603 -13172909
            -201852609 -142606339 -4194407 -1728905286</internalNodes>
          <leafValues>
            -3.9165475964546204e-001 4.5730012655258179e-001</leafValues></_>
        <_>
          <internalNodes>
            0 -1 41 -670739379 424055051 445419975 -175352286 -536769301
            -553189372 -526268926 674216559</internalNodes>
          <leafValues>
            -4.1316995024681091e-001 4.4714984297752380e-001</leafValues></_>
        <_>
          <internalNodes>
            0 -1 27 198056935 1405747403 294212447 11780257 -1425923572
            1395663363 582431431 1221052643</internalNodes>
          <leafValues>
            -5.0329786539077759e-001 3.7942868471145630e-001</leafValues></_>
        <_>
          <internalNodes>
            0 -1 81 -282882166 1912934276 15056896 14532610 94667200
            1108345026 1610838235 329113710</internalNodes>
          <leafValues>
            -6.7455404996871948e-001 2.7036482095718384e-001</leafValues></_>
        <_>
          <internalNodes>
            0 -1 14 -840698942 -247209129 1085454 1141899265 -1591606773
            -1878818742 1074856095 220549767</internalNodes>
          <leafValues>
            -4.6717792749404907e-001 3.9365604519844055e-001</leafValues></_>
        <_>
          <internalNodes>
            0 -1 116 176820281 166788975 -303044487 -1934033130
            -1210188308 -231585 -1744969896 -74941149</internalNodes>
          <leafValues>
            -4.0072557330131531e-001 4.8294162750244141e-001</leafValues></_></weakClassifiers></_>
    <!-- stage 15 -->
    <_>
      <maxWeakCount>12</maxWeakCount>
      <stageThreshold>-6.9616329669952393e-001</stageThreshold>
      <weakClassifiers>
        <_>
          <internalNodes>
            0 -1 101 355996885 -539525637 1073168095 -1613030405
            -37896201 -1082738689 -1088571157 1067460589</internalNodes>
          <leafValues>
            -2.4064171314239502e-001 7.2774869203567505e-001</leafValues></_>
        <_>
          <internalNodes>
            0 -1 123 -351614454 -540538061 1009684234 -13695045
            -40398935 -235458709 -1907408913 -537149445</internalNodes>
          <leafValues>
            -4.3457293510437012e-001 5.0940382480621338e-001</leafValues></_>
        <_>
          <internalNodes>
            0 -1 64 -758669182 1384235114 -1073609592 1392951306
            1090760077 302017026 536936512 1397743839</internalNodes>
          <leafValues>
            -5.5522894859313965e-001 3.7418705224990845e-001</leafValues></_>
        <_>
          <internalNodes>
            0 -1 0 -279984413 -69761 -63633 -39855 -1879134474
            -151597082 -1092669473 -12646994</internalNodes>
          <leafValues>
            -3.8367632031440735e-001 5.1690888404846191e-001</leafValues></_>
        <_>
          <internalNodes>
            0 -1 43 -2000119681 -1140846206 -1022704578 419430664
            -2142752632 -282427391 -2112348149 705340579</internalNodes>
          <leafValues>
            -5.4008573293685913e-001 3.7277615070343018e-001</leafValues></_>
        <_>
          <internalNodes>
            0 -1 154 -572537597 567349723 -1731640800 -1059741693
            -1475747675 -785741295 -222248591 -7873797</internalNodes>
          <leafValues>
            -4.8935946822166443e-001 3.8037398457527161e-001</leafValues></_>
        <_>
          <internalNodes>
            0 -1 84 2022686852 825422378 -1475358448 -980487680
            1404790157 -318351214 1099158634 1091040263</internalNodes>
          <leafValues>
            -5.5007290840148926e-001 3.4722316265106201e-001</leafValues></_>
        <_>
          <internalNodes>
            0 -1 130 -1067679572 1919290006 415369256 -1423802108
            1661410636 277544970 -1417180292 -352380408</internalNodes>
          <leafValues>
            -6.4607656002044678e-001 2.7027919888496399e-001</leafValues></_>
        <_>
          <internalNodes>
            0 -1 160 -406132062 830775812 1343836940 1472270530
            -1098804503 168951814 295731960 -125347207</internalNodes>
          <leafValues>
            -4.6763205528259277e-001 3.9290079474449158e-001</leafValues></_>
        <_>
          <internalNodes>
            0 -1 57 1507572642 1519899350 -511573366 361570898
            1258909940 1342245474 -73692061 2132005882</internalNodes>
          <leafValues>
            -5.0012981891632080e-001 3.8840779662132263e-001</leafValues></_>
        <_>
          <internalNodes>
            0 -1 91 -1507511468 562581802 151769805 1396781825
            -1106530819 -502263377 136972504 27964386</internalNodes>
          <leafValues>
            -5.8965212106704712e-001 3.2078370451927185e-001</leafValues></_>
        <_>
          <internalNodes>
            0 -1 94 722737373 -769372097 -804952613 -359242452
            -1710162959 -123102576 -1441170555 465047064</internalNodes>
          <leafValues>
            -6.8280464410781860e-001 2.7416455745697021e-001</leafValues></_></weakClassifiers></_></stages>
  <features>
    <_>
      <rect>
        0 0 13 7</rect></_>
    <_>
      <rect>
        0 3 8 6</rect></_>
    <_>
      <rect>
        0 3 12 6</rect></_>
    <_>
      <rect>
        0 3 14 7</rect></_>
    <_>
      <rect>
        0 4 11 5</rect></_>
    <_>
      <rect>
        0 6 11 8</rect></_>
    <_>
      <rect>
        0 9 9 5</rect></_>
    <_>
      <rect>
        0 10 22 4</rect></_>
    <_>
      <rect>
        0 12 15 5</rect></_>
    <_>
      <rect>
        0 15 8 3</rect></_>
    <_>
      <rect>
        0 16 10 4</rect></_>
    <_>
      <rect>
        0 17 30 3</rect></_>
    <_>
      <rect>
        1 9 9 2</rect></_>
    <_>
      <rect>
        1 19 22 2</rect></_>
    <_>
      <rect>
        4 8 13 2</rect></_>
    <_>
      <rect>
        7 9 17 2</rect></_>
    <_>
      <rect>
        12 6 11 2</rect></_>
    <_>
      <rect>
        12 9 15 2</rect></_>
    <_>
      <rect>
        13 4 15 5</rect></_>
    <_>
      <rect>
        16 22 7 1</rect></_>
    <_>
      <rect>
        17 1 5 2</rect></_>
    <_>
      <rect>
        17 3 14 3</rect></_>
    <_>
      <rect>
        17 15 20 5</rect></_>
    <_>
      <rect>
        17 18 21 4</rect></_>
    <_>
      <rect>
        18 2 4 1</rect></_>
    <_>
      <rect>
        18 4 5 1</rect></_>
    <_>
      <rect>
        18 9 13 2</rect></_>
    <_>
      <rect>
        18 9 17 4</rect></_>
    <_>
      <rect>
        18 10 20 5</rect></_>
    <_>
      <rect>
        18 12 4 3</rect></_>
    <_>
      <rect>
        19 6 6 1</rect></_>
    <_>
      <rect>
        19 6 12 2</rect></_>
    <_>
      <rect>
        20 18 14 2</rect></_>
    <_>
      <rect>
        20 18 18 3</rect></_>
    <_>
      <rect>
        21 8 11 2</rect></_>
    <_>
      <rect>
        21 20 10 1</rect></_>
    <_>
      <rect>
        22 2 4 1</rect></_>
    <_>
      <rect>
        23 2 5 2</rect></_>
    <_>
      <rect>
        23 8 7 1</rect></_>
    <_>
      <rect>
        23 16 18 2</rect></_>
    <_>
      <rect>
        23 17 10 2</rect></_>
    <_>
      <rect>
        24 10 10 1</rect></_>
    <_>
      <rect>
        25 11 3 3</rect></_>
    <_>
      <rect>
        27 8 10 2</rect></_>
    <_>
      <rect>
        27 11 9 1</rect></_>
    <_>
      <rect>
        28 7 7 1</rect></_>
    <_>
      <rect>
        28 10 2 3</rect></_>
    <_>
      <rect>
        28 10 15 2</rect></_>
    <_>
      <rect>
        28 19 11 1</rect></_>
    <_>
      <rect>
        28 20 12 3</rect></_>
    <_>
      <rect>
        29 8 6 1</rect></_>
    <_>
      <rect>
        29 12 2 3</rect></_>
    <_>
      <rect>
        29 19 8 1</rect></_>
    <_>
      <rect>
        29 25 4 1</rect></_>
    <_>
      <rect>
        30 5 10 2</rect></_>
    <_>
      <rect>
        30 9 2 3</rect></_>
    <_>
      <rect>
        30 9 15 2</rect></_>
    <_>
      <rect>
        30 10 3 4</rect></_>
    <_>
      <rect>
        30 12 2 3</rect></_>
    <_>
      <rect>
        30 20 9 2</rect></_>
    <_>
      <rect>
        30 25 6 1</rect></_>
    <_>
      <rect>
        31 4 13 5</rect></_>
    <_>
      <rect>
        31 6 8 4</rect></_>
    <_>
      <rect>
        32 25 6 1</rect></_>
    <_>
      <rect>
        33 10 2 3</rect></_>
    <_>
      <rect>
        34 6 12 4</rect></_>
    <_>
      <rect>
        35 9 9 2</rect></_>
    <_>
      <rect>
        35 10 2 3</rect></_>
    <_>
      <rect>
        35 12 2 5</rect></_>
    <_>
      <rect>
        36 9 8 2</rect></_>
    <_>
      <rect>
        36 9 11 2</rect></_>
    <_>
      <rect>
        36 10 3 3</rect></_>
    <_>
      <rect>
        36 10 6 2</rect></_>
    <_>
      <rect>
        36 20 8 1</rect></_>
    <_>
      <rect>
        37 9 8 2</rect></_>
    <_>
      <rect>
        38 8 6 2</rect></_>
    <_>
      <rect>
        38 13 2 3</rect></_>
    <_>
      <rect>
        39 10 3 3</rect></_>
    <_>
      <rect>
        39 22 8 2</rect></_>
    <_>
      <rect>
        40 10 2 3</rect></_>
    <_>
      <rect>
        40 13 2 3</rect></_>
    <_>
      <rect>
        40 13 3 2</rect></_>
    <_>
      <rect>
        40 15 2 4</rect></_>
    <_>
      <rect>
        41 6 3 1</rect></_>
    <_>
      <rect>
        41 10 2 3</rect></_>
    <_>
      <rect>
        41 14 2 3</rect></_>
    <_>
      <rect>
        42 6 16 4</rect></_>
    <_>
      <rect>
        42 20 6 1</rect></_>
    <_>
      <rect>
        44 7 2 1</rect></_>
    <_>
      <rect>
        44 9 4 1</rect></_>
    <_>
      <rect>
        44 9 15 4</rect></_>
    <_>
      <rect>
        44 10 8 2</rect></_>
    <_>
      <rect>
        44 14 2 3</rect></_>
    <_>
      <rect>
        45 4 2 1</rect></_>
    <_>
      <rect>
        45 6 4 1</rect></_>
    <_>
      <rect>
        45 8 9 2</rect></_>
    <_>
      <rect>
        45 9 9 2</rect></_>
    <_>
      <rect>
        46 10 8 2</rect></_>
    <_>
      <rect>
        46 10 14 3</rect></_>
    <_>
      <rect>
        46 11 10 2</rect></_>
    <_>
      <rect>
        46 14 13 2</rect></_>
    <_>
      <rect>
        47 8 2 1</rect></_>
    <_>
      <rect>
        47 9 7 2</rect></_>
    <_>
      <rect>
        47 15 12 3</rect></_>
    <_>
      <rect>
        47 16 2 3</rect></_>
    <_>
      <rect>
        48 6 2 5</rect></_>
    <_>
      <rect>
        48 7 3 1</rect></_>
    <_>
      <rect>
        49 3 10 5</rect></_>
    <_>
      <rect>
        49 8 2 1</rect></_>
    <_>
      <rect>
        49 10 9 4</rect></_>
    <_>
      <rect>
        49 12 2 2</rect></_>
    <_>
      <rect>
        49 13 8 4</rect></_>
    <_>
      <rect>
        49 14 2 4</rect></_>
    <_>
      <rect>
        50 7 3 1</rect></_>
    <_>
      <rect>
        50 7 9 7</rect></_>
    <_>
      <rect>
        50 9 7 2</rect></_>
    <_>
      <rect>
        50 10 3 1</rect></_>
    <_>
      <rect>
        50 13 8 3</rect></_>
    <_>
      <rect>
        50 25 2 1</rect></_>
    <_>
      <rect>
        51 8 5 3</rect></_>
    <_>
      <rect>
        51 10 2 3</rect></_>
    <_>
      <rect>
        51 10 5 2</rect></_>
    <_>
      <rect>
        51 10 7 3</rect></_>
    <_>
      <rect>
        51 15 9 2</rect></_>
    <_>
      <rect>
        52 7 6 3</rect></_>
    <_>
      <rect>
        53 0 12 8</rect></_>
    <_>
      <rect>
        53 1 8 6</rect></_>
    <_>
      <rect>
        53 5 6 8</rect></_>
    <_>
      <rect>
        54 15 12 4</rect></_>
    <_>
      <rect>
        56 8 6 4</rect></_>
    <_>
      <rect>
        57 16 6 3</rect></_>
    <_>
      <rect>
        58 5 5 1</rect></_>
    <_>
      <rect>
        59 5 9 8</rect></_>
    <_>
      <rect>
        59 13 1 1</rect></_>
    <_>
      <rect>
        59 14 1 2</rect></_>
    <_>
      <rect>
        60 9 9 7</rect></_>
    <_>
      <rect>
        60 11 7 6</rect></_>
    <_>
      <rect>
        60 12 9 5</rect></_>
    <_>
      <rect>
        60 14 1 1</rect></_>
    <_>
      <rect>
        61 15 2 2</rect></_>
    <_>
      <rect>
        61 27 3 1</rect></_>
    <_>
      <rect>
        62 13 1 1</rect></_>
    <_>
      <rect>
        62 14 1 1</rect></_>
    <_>
      <rect>
        63 0 9 7</rect></_>
    <_>
      <rect>
        63 0 9 8</rect></_>
    <_>
      <rect>
        63 1 4 2</rect></_>
    <_>
      <rect>
        63 3 9 5</rect></_>
    <_>
      <rect>
        63 12 9 6</rect></_>
    <_>
      <rect>
        63 13 2 2</rect></_>
    <_>
      <rect>
        63 14 1 1</rect></_>
    <_>
      <rect>
        64 14 7 4</rect></_>
    <_>
      <rect>
        65 1 5 1</rect></_>
    <_>
      <rect>
        65 11 3 2</rect></_>
    <_>
      <rect>
        66 9 8 5</rect></_>
    <_>
      <rect>
        66 10 8 4</rect></_>
    <_>
      <rect>
        66 12 8 6</rect></_>
    <_>
      <rect>
        66 14 2 2</rect></_>
    <_>
      <rect>
        67 11 2 2</rect></_>
    <_>
      <rect>
        68 12 2 3</rect></_>
    <_>
      <rect>
        68 12 7 4</rect></_>
    <_>
      <rect>
        68 13 2 2</rect></_>
    <_>
      <rect>
        68 27 3 1</rect></_>
    <_>
      <rect>
        69 11 7 4</rect></_>
    <_>
      <rect>
        69 16 7 3</rect></_>
    <_>
      <rect>
        70 8 3 3</rect></_>
    <_>
      <rect>
        81 7 3 3</rect></_></features></cascade>
</opencv_storage>
